{"learner":{"attributes":{"best_iteration":"71","best_score":"0.07171032008403563","scikit_learn":"{\"_estimator_type\": \"classifier\"}"},"feature_names":["age","height_cm","weight_kg","income","financial_hist_1","financial_hist_2","financial_hist_3","financial_hist_4","credit_score_1","credit_score_2","credit_score_3","insurance_hist_1","insurance_hist_2","insurance_hist_3","insurance_hist_4","insurance_hist_5","bmi","gender","marital_status","occupation","location","prev_claim_rejected","known_health_conditions","uk_residence","family_history_1","family_history_2","family_history_4","family_history_5","product_var_1","product_var_2","product_var_3","product_var_4","health_status","driving_record","previous_claim_rate","education_level","income level","n_dependents"],"feature_types":["int","int","int","int","float","float","float","float","int","int","int","float","float","float","float","float","int","c","c","c","c","c","c","c","c","c","c","c","c","c","c","int","c","c","c","c","c","c"],"gradient_booster":{"model":{"gbtree_model_param":{"num_parallel_tree":"1","num_trees":"72"},"iteration_indptr":[0,1,2,3,4,5,6,7,8,9,10,11,12,13,14,15,16,17,18,19,20,21,22,23,24,25,26,27,28,29,30,31,32,33,34,35,36,37,38,39,40,41,42,43,44,45,46,47,48,49,50,51,52,53,54,55,56,57,58,59,60,61,62,63,64,65,66,67,68,69,70,71,72],"tree_info":[0,0,0,0,0,0,0,0,0,0,0,0,0,0,0,0,0,0,0,0,0,0,0,0,0,0,0,0,0,0,0,0,0,0,0,0,0,0,0,0,0,0,0,0,0,0,0,0,0,0,0,0,0,0,0,0,0,0,0,0,0,0,0,0,0,0,0,0,0,0,0,0],"trees":[{"base_weights":[-2.731562E-1,-7.695604E-1,1.6972607E0,-1.0441458E0,-3.567262E-1,-7.8632253E-1,2.6798658E0,-1.0611929E0,1.1702061E-1,-5.6137836E-1,3.3643079E0,-1.0338175E0,2.0144644E-1,3.8147702E0,-5.8393896E-1,-1.1106877E0,-6.749407E-1,-6.8957365E-1,6.454327E-1,3.0696896E-1,2.1353401E-2,-8.74269E-2,-5.9100693E-1,-2.262276E-2,3.991018E0,-9.705863E-1,1.7411822E-1,-1.1340215E0,-5.193681E-1,-1.1130807E0,1.168087E0,-9.430948E-1,9.16846E-2,-2.6933932E-1,1.9017129E0,2.1260083E-2,-8.3007586E-1,2.1502137E0,4.2701235E0,-1.4479754E-2,-1.0653517E0,-1.1615591E0,-9.222084E-1,-8.9194864E-1,-9.0517394E-2,-4.488365E-2,-1.1556451E0,2.2030828E0,-2.441126E-2,-9.7346705E-1,7.5880855E-2,-5.2732474E-1,1.8803978E0,-5.993226E-1,8.014048E-2,2.5036616E0,-3.5094272E-2,-1.6309487E-2,-7.759697E-2,3.2830477E-1,6.2742376E-1,3.360251E-1,2.5057912E0,-8.6347945E-2,-4.3537814E-2,-8.9465484E-2,-4.7379166E-2,4.8797756E-2,-7.92752E-2,-2.48237E-2,-8.44179E-2,-4.3572813E-2,5.377071E-2,-4.84026E-2,-9.108866E-2,2.0144644E-1,8.903702E-2,-8.128854E-2,-4.0221445E-2,-6.733927E-2,2.2754507E-2,2.664544E-1,6.742597E-2,3.3126388E-2,-6.899666E-2,2.2838673E-1,7.5880855E-2,-8.0697626E-2,1.526759E-1,5.2903187E-2,2.6002306E-1],"categories":[0],"categories_nodes":[29],"categories_segments":[0],"categories_sizes":[1],"default_left":[0,0,0,0,0,0,0,0,0,0,0,0,0,0,0,0,0,0,0,0,0,0,0,0,0,0,0,0,0,1,0,0,0,0,0,0,0,0,0,0,0,0,0,0,0,0,0,0,0,0,0,0,0,0,0,0,0,0,0,0,0,0,0,0,0,0,0,0,0,0,0,0,0,0,0,0,0,0,0,0,0,0,0,0,0,0,0,0,0,0,0],"id":0,"left_children":[1,3,5,7,9,11,13,15,-1,17,19,21,-1,23,25,27,29,31,33,-1,-1,-1,35,-1,37,39,-1,41,43,45,47,49,51,53,55,-1,57,59,61,-1,63,65,67,69,71,-1,73,75,-1,77,-1,79,81,83,-1,85,-1,-1,-1,-1,87,-1,89,-1,-1,-1,-1,-1,-1,-1,-1,-1,-1,-1,-1,-1,-1,-1,-1,-1,-1,-1,-1,-1,-1,-1,-1,-1,-1,-1,-1],"loss_changes":[1.238053E3,1.1419379E2,6.237987E2,2.8196106E1,3.1047025E2,6.439554E1,6.79193E2,1.0778809E1,0E0,5.999997E1,4.090181E1,2.5756836E0,0E0,9.950232E1,5.5221394E1,6.7650146E0,5.866948E1,6.910626E1,4.3586754E1,0E0,0E0,0E0,3.4335632E0,0E0,5.7726074E1,2.9836884E0,0E0,1.9146729E0,3.4469848E0,6.237488E-1,2.2446878E1,1.6414993E1,9.6530624E1,1.0416677E1,2.3753487E1,0E0,1.173768E0,5.953682E1,1.1454102E1,0E0,5.1896286E-1,6.361084E-1,1.1785412E1,1.0348806E0,4.704915E0,0E0,1.492691E-1,6.907425E-1,0E0,9.577255E0,0E0,1.9038483E1,3.271721E1,6.1821804E0,0E0,6.295082E0,0E0,0E0,0E0,0E0,3.0405952E1,0E0,1.2314667E1,0E0,0E0,0E0,0E0,0E0,0E0,0E0,0E0,0E0,0E0,0E0,0E0,0E0,0E0,0E0,0E0,0E0,0E0,0E0,0E0,0E0,0E0,0E0,0E0,0E0,0E0,0E0,0E0],"parents":[2147483647,0,0,1,1,2,2,3,3,4,4,5,5,6,6,7,7,9,9,10,10,11,11,13,13,14,14,15,15,16,16,17,17,18,18,22,22,24,24,25,25,27,27,28,28,29,29,30,30,31,31,32,32,33,33,34,34,36,36,37,37,38,38,40,40,41,41,42,42,43,43,44,44,46,46,47,47,49,49,51,51,52,52,53,53,55,55,60,60,62,62],"right_children":[2,4,6,8,10,12,14,16,-1,18,20,22,-1,24,26,28,30,32,34,-1,-1,-1,36,-1,38,40,-1,42,44,46,48,50,52,54,56,-1,58,60,62,-1,64,66,68,70,72,-1,74,76,-1,78,-1,80,82,84,-1,86,-1,-1,-1,-1,88,-1,90,-1,-1,-1,-1,-1,-1,-1,-1,-1,-1,-1,-1,-1,-1,-1,-1,-1,-1,-1,-1,-1,-1,-1,-1,-1,-1,-1,-1],"split_conditions":[6.14E2,3.27E2,5E1,7E1,2.4986938E-1,4.2E2,7.1E1,5.57E2,1.1702061E-1,1.47354E5,1.8E2,4.5E1,2.0144644E-1,1.65E2,1.79E2,6.3E1,5.3E1,1.73E2,6.7E1,3.0696896E-1,2.1353401E-2,-8.74269E-2,1.20285E5,-2.262276E-2,5.4E1,1.03148E5,1.7411822E-1,1.1175961E0,4.37E2,NaN,1.77E2,-2.2321314E-1,4.42E2,3.81E2,-8.550937E-1,2.1260083E-2,2.78E2,1.17718E5,6.9E1,-1.4479754E-2,1.42034E5,2.172737E0,1.76E2,-6.936672E-1,1.58778E5,-4.488365E-2,5.61E2,1.59157E5,-2.441126E-2,1.29945E5,7.5880855E-2,5.44E2,6.7E1,1.50906E5,8.014048E-2,1.75E2,-3.5094272E-2,-1.6309487E-2,-7.759697E-2,3.2830477E-1,2.3180063E0,3.360251E-1,6.61E2,-8.6347945E-2,-4.3537814E-2,-8.9465484E-2,-4.7379166E-2,4.8797756E-2,-7.92752E-2,-2.48237E-2,-8.44179E-2,-4.3572813E-2,5.377071E-2,-4.84026E-2,-9.108866E-2,2.0144644E-1,8.903702E-2,-8.128854E-2,-4.0221445E-2,-6.733927E-2,2.2754507E-2,2.664544E-1,6.742597E-2,3.3126388E-2,-6.899666E-2,2.2838673E-1,7.5880855E-2,-8.0697626E-2,1.526759E-1,5.2903187E-2,2.6002306E-1],"split_indices":[8,9,0,0,11,9,0,8,0,3,1,0,0,1,1,0,0,1,0,0,0,0,3,0,0,3,0,11,8,21,1,11,9,9,11,0,9,3,0,0,3,14,1,5,3,0,8,3,0,3,0,8,0,3,0,1,0,0,0,0,11,0,8,0,0,0,0,0,0,0,0,0,0,0,0,0,0,0,0,0,0,0,0,0,0,0,0,0,0,0,0],"split_type":[0,0,0,0,0,0,0,0,0,0,0,0,0,0,0,0,0,0,0,0,0,0,0,0,0,0,0,0,0,1,0,0,0,0,0,0,0,0,0,0,0,0,0,0,0,0,0,0,0,0,0,0,0,0,0,0,0,0,0,0,0,0,0,0,0,0,0,0,0,0,0,0,0,0,0,0,0,0,0,0,0,0,0,0,0,0,0,0,0,0,0],"sum_hessian":[1.263408E3,1.00965625E3,2.5375172E2,6.05437E2,4.042192E2,7.1990906E1,1.8176082E2,6.0203204E2,3.4049754E0,3.839515E2,2.026771E1,6.777522E1,4.215684E0,1.3473973E2,4.7021088E1,5.319869E2,7.0045204E1,3.4746964E2,3.6481876E1,1.6538452E1,3.7292585E0,5.3344612E1,1.443061E1,5.5128174E0,1.2922691E2,4.1994694E1,5.026392E0,5.1090845E2,2.1078419E1,5.691173E1,1.3133476E1,2.621831E2,8.528652E1,2.1564844E1,1.4917034E1,3.0806918E0,1.1349917E1,1.8159868E1,1.11067055E2,4.86425E0,3.7130444E1,4.481596E2,6.274883E1,1.0701351E1,1.0377068E1,5.3506756E0,5.1561054E1,7.458517E0,5.6749587E0,2.5861597E2,3.567117E0,6.3883823E1,2.1402702E1,1.7673443E1,3.8914003E0,1.1836343E1,3.0806918E0,3.0806918E0,8.269226E0,6.809951E0,1.1349917E1,1.0295997E2,8.107084E0,3.1941912E1,5.188534E0,4.4248465E2,5.6749587E0,3.8914003E0,5.885743E1,3.567117E0,7.134234E0,6.647809E0,3.7292585E0,4.215684E0,4.734537E1,4.215684E0,3.2428336E0,2.154863E2,4.312969E1,4.4751102E1,1.9132719E1,7.2963758E0,1.4106326E1,3.8914003E0,1.37820425E1,8.269226E0,3.567117E0,5.188534E0,6.1613836E0,3.2428336E0,4.86425E0],"tree_param":{"num_deleted":"0","num_feature":"38","num_nodes":"91","size_leaf_vector":"1"}},{"base_weights":[-2.6603973E-1,-7.4049914E-1,1.446644E0,-1.0119249E0,-3.3996874E-1,-8.2219124E-1,2.1844559E0,-1.0555444E0,9.0855196E-2,-5.0887626E-1,5.6802213E-1,-1.0285546E0,1.593058E-1,2.9558322E0,-6.006376E-1,-1.1067837E0,-6.696956E-1,6.8988955E-1,-7.592918E-2,-6.466924E-1,7.3754716E-1,1.5683569E0,-2.712532E-1,-8.9175574E-2,-6.719215E-1,1.9249692E0,3.2980635E0,4.8087027E-2,-7.664111E-1,-9.9878883E-1,-8.892154E-2,-1.0885519E0,1.1387827E0,-1.0694059E-1,1.3296394E-1,1.4637385E-1,-6.8261355E-1,-1.8011952E-2,1.8522129E0,-7.261178E-2,2.3165226E0,3.636917E-1,-7.456795E-1,3.3333139E-3,-8.4826887E-1,2.0151123E-1,2.274517E0,1.8259896E0,2.6432854E-1,1.1299913E-2,-8.958772E-1,-1.0287344E0,1.12385955E-2,-1.5346052E-2,-8.712487E-2,2.6494303E0,-4.965606E-2,-5.381576E-2,5.016738E-2,-8.3449686E-1,-2.3001756E-1,-3.6592406E-1,9.182986E-2,2.277697E0,2.9709332E-2,2.6101608E0,3.3212807E-2,7.0945615E-1,-5.5082113E-2,-1.4536794E-1,-7.739634E-2,-2.4851566E-2,-9.756447E-1,5.6495663E-2,-1.9912547E-2,2.630915E0,-2.7744443E-4,2.3865665E-1,5.4917824E-1,-7.959967E-2,-4.4539627E-1,-8.668372E-2,-5.8338452E-2,1.0617195E-1,2.523692E-1,-7.190702E-2,-2.3897493E-2,2.0722608E-1,-3.5580162E-2,-7.033898E-2,2.616623E-2,6.7510635E-2,2.4969096E-1,2.4108091E-1,1.342246E-1,1.1327768E-1,5.2962364E-3,-7.352199E-2,5.4733343E-2,-8.447966E-2,-3.6530476E-2,2.3013811E-1,1.2575443E-1,1.4047514E-1,-7.388695E-2,2.4802787E-2,-7.90904E-2],"categories":[0,1,2,6,7,8,10,11,12,13,15,16,20,22,23,24,25,2,3,4,5,2,0,1,2,3,4,5,6,7,8,9,10,11,12,13,14,15,16,17,18,19,0,1,2,3,4],"categories_nodes":[15,22,41,44,72],"categories_segments":[0,17,21,22,42],"categories_sizes":[17,4,1,20,5],"default_left":[0,0,0,0,0,0,0,0,0,0,0,0,0,0,0,1,0,0,0,0,0,0,1,0,0,0,0,0,0,0,0,0,0,0,0,0,0,0,0,0,0,1,0,0,1,0,0,0,0,0,0,0,0,0,0,0,0,0,0,0,0,0,0,0,0,0,0,0,0,0,0,0,1,0,0,0,0,0,0,0,0,0,0,0,0,0,0,0,0,0,0,0,0,0,0,0,0,0,0,0,0,0,0,0,0,0,0],"id":1,"left_children":[1,3,5,7,9,11,13,15,17,19,21,23,-1,25,27,29,31,33,-1,35,37,39,41,-1,43,45,47,-1,49,51,-1,53,55,57,-1,-1,59,61,63,-1,65,67,69,-1,71,73,75,77,-1,-1,79,81,-1,-1,-1,83,-1,-1,-1,85,87,89,-1,91,-1,93,-1,95,-1,97,-1,-1,99,-1,-1,101,-1,-1,103,-1,105,-1,-1,-1,-1,-1,-1,-1,-1,-1,-1,-1,-1,-1,-1,-1,-1,-1,-1,-1,-1,-1,-1,-1,-1,-1,-1],"loss_changes":[1.0181788E3,1.0628369E2,4.5689124E2,2.8193604E1,6.128092E1,4.2503323E1,4.4310065E2,1.0369385E1,1.5677077E1,5.8166412E1,5.319009E1,2.2769012E0,0E0,5.0464478E1,9.719772E0,1.6849365E0,5.3061028E1,1.307533E1,0E0,2.9119553E1,2.8586823E1,5.6437027E1,1.0822811E1,0E0,2.537302E0,2.5168625E1,2.0130493E1,0E0,4.9162693E0,5.998947E0,0E0,2.1645126E0,3.7756386E1,4.866566E0,0E0,0E0,2.039444E1,9.405867E0,7.65884E0,0E0,1.1313644E1,6.366893E0,3.0823603E0,0E0,7.483368E-1,2.234307E0,2.8645325E1,1.9973804E1,0E0,0E0,1.820921E0,3.6836853E0,0E0,0E0,0E0,1.480732E0,0E0,0E0,0E0,1.182605E1,5.388464E1,7.0430355E0,0E0,1.1385975E1,0E0,3.3475647E0,0E0,5.9816103E0,0E0,5.854218E0,0E0,0E0,2.5300217E-1,0E0,0E0,6.2916565E0,0E0,0E0,1.6984915E1,0E0,4.9774857E0,0E0,0E0,0E0,0E0,0E0,0E0,0E0,0E0,0E0,0E0,0E0,0E0,0E0,0E0,0E0,0E0,0E0,0E0,0E0,0E0,0E0,0E0,0E0,0E0,0E0,0E0],"parents":[2147483647,0,0,1,1,2,2,3,3,4,4,5,5,6,6,7,7,8,8,9,9,10,10,11,11,13,13,14,14,15,15,16,16,17,17,19,19,20,20,21,21,22,22,24,24,25,25,26,26,28,28,29,29,31,31,32,32,33,33,36,36,37,37,38,38,40,40,41,41,42,42,44,44,45,45,46,46,47,47,50,50,51,51,55,55,59,59,60,60,61,61,63,63,65,65,67,67,69,69,72,72,75,75,78,78,80,80],"right_children":[2,4,6,8,10,12,14,16,18,20,22,24,-1,26,28,30,32,34,-1,36,38,40,42,-1,44,46,48,-1,50,52,-1,54,56,58,-1,-1,60,62,64,-1,66,68,70,-1,72,74,76,78,-1,-1,80,82,-1,-1,-1,84,-1,-1,-1,86,88,90,-1,92,-1,94,-1,96,-1,98,-1,-1,100,-1,-1,102,-1,-1,104,-1,106,-1,-1,-1,-1,-1,-1,-1,-1,-1,-1,-1,-1,-1,-1,-1,-1,-1,-1,-1,-1,-1,-1,-1,-1,-1,-1],"split_conditions":[6.14E2,3.29E2,4.9E1,6.4E1,5.79E2,4.2E2,7.1E1,5.57E2,8.4E1,1.47354E5,6.7E1,3.09E2,1.593058E-1,6.53E2,2.8E1,NaN,5.3E1,1.68972E5,-7.592918E-2,2.5E1,6.7E1,5.3E1,NaN,-8.9175574E-2,3.19E2,5.5E1,5.3E1,4.8087027E-2,1.03148E5,2.0142696E0,-8.892154E-2,7E1,8E1,5.38E2,1.3296394E-1,1.4637385E-1,4.36E2,3.8E2,9.3E1,-7.261178E-2,1.51349E5,NaN,3E1,3.3333139E-3,NaN,-3.5809737E-1,6.9E1,1.12593E5,2.6432854E-1,1.1299913E-2,9.9E1,4.77E2,1.12385955E-2,-1.5346052E-2,-8.712487E-2,2.4E1,-4.965606E-2,-5.381576E-2,5.016738E-2,1.34814E5,3E1,5.14E2,9.182986E-2,2.9E1,2.9709332E-2,6.3E1,3.3212807E-2,-4.222793E-1,-5.5082113E-2,8.3E1,-7.739634E-2,-2.4851566E-2,NaN,5.6495663E-2,-1.9912547E-2,6.5E1,-2.7744443E-4,2.3865665E-1,8.7E1,-7.959967E-2,3.5E1,-8.668372E-2,-5.8338452E-2,1.0617195E-1,2.523692E-1,-7.190702E-2,-2.3897493E-2,2.0722608E-1,-3.5580162E-2,-7.033898E-2,2.616623E-2,6.7510635E-2,2.4969096E-1,2.4108091E-1,1.342246E-1,1.1327768E-1,5.2962364E-3,-7.352199E-2,5.4733343E-2,-8.447966E-2,-3.6530476E-2,2.3013811E-1,1.2575443E-1,1.4047514E-1,-7.388695E-2,2.4802787E-2,-7.90904E-2],"split_indices":[8,9,0,0,8,9,0,8,2,3,0,9,0,8,16,20,0,3,0,16,0,0,35,0,9,0,0,0,3,14,0,2,2,8,0,0,9,9,2,0,3,32,16,0,20,14,0,3,0,0,2,8,0,0,0,16,0,0,0,3,16,8,0,16,0,0,0,14,0,2,0,0,20,0,0,0,0,0,2,0,16,0,0,0,0,0,0,0,0,0,0,0,0,0,0,0,0,0,0,0,0,0,0,0,0,0,0],"split_type":[0,0,0,0,0,0,0,0,0,0,0,0,0,0,0,1,0,0,0,0,0,0,1,0,0,0,0,0,0,0,0,0,0,0,0,0,0,0,0,0,0,1,0,0,1,0,0,0,0,0,0,0,0,0,0,0,0,0,0,0,0,0,0,0,0,0,0,0,0,0,0,0,1,0,0,0,0,0,0,0,0,0,0,0,0,0,0,0,0,0,0,0,0,0,0,0,0,0,0,0,0,0,0,0,0,0,0],"sum_hessian":[1.2506724E3,9.7980707E2,2.7086523E2,5.8312006E2,3.9668704E2,6.644053E1,2.0442471E2,5.6097406E2,2.2146017E1,3.3483875E2,6.184828E1,6.2629814E1,3.8107152E0,1.6003825E2,4.4386463E1,4.9356226E2,6.741178E1,1.4484413E1,7.6616035E0,3.0193518E2,3.2903587E1,2.7820381E1,3.40279E1,4.3810413E1,1.88194E1,4.1539234E1,1.18499016E2,4.948275E0,3.9438187E1,1.6950012E2,3.2406213E2,5.505804E1,1.23537445E1,8.726193E0,5.7582197E0,3.4613442E0,2.9847382E2,2.0197119E1,1.2706468E1,6.31635E0,2.150403E1,1.4651962E1,1.9375937E1,3.8705933E0,1.4948808E1,7.270124E0,3.426911E1,1.2191412E1,1.063076E2,4.876842E0,3.4561348E1,1.6528084E2,4.2192802E0,3.0893886E0,5.196865E1,6.43208E0,5.9216647E0,4.941691E0,3.784502E0,2.2284657E2,7.562724E1,1.6247496E1,3.9496233E0,9.415967E0,3.2905009E0,1.8269444E1,3.2345884E0,1.136539E1,3.2865727E0,6.3918066E0,1.298413E1,3.6161082E0,1.1332699E1,3.087767E0,4.182357E0,2.9499306E1,4.769805E0,5.354298E0,6.837114E0,2.5262733E1,9.298613E0,1.1731235E2,4.796849E1,3.231285E0,3.2007945E0,1.8533412E2,3.7512463E1,4.8108063E0,7.081644E1,8.960689E0,7.286807E0,4.664006E0,4.7519603E0,9.619911E0,8.649531E0,4.57211E0,6.7932796E0,3.2234485E0,3.168358E0,8.078103E0,3.2545958E0,1.9977379E1,9.521927E0,3.5850832E0,3.2520306E0,4.2168818E0,5.0817313E0],"tree_param":{"num_deleted":"0","num_feature":"38","num_nodes":"107","size_leaf_vector":"1"}},{"base_weights":[-2.4874237E-1,-7.9579824E-1,1.0234224E0,1.590942E0,-8.335559E-1,1.9673187E0,3.973572E-2,3.036288E0,-6.48146E-2,-4.5431042E-1,-1.0038623E0,2.3028765E0,-4.6718654E-1,1.788624E0,-2.9228067E-1,1.1649147E-1,2.728253E-1,1.6547277E0,-5.7654846E-1,-8.5226417E-1,-1.0676726E0,-6.836546E-2,2.4019973E0,-8.23215E-1,6.360698E-2,-6.788899E-2,2.4748957E0,6.231573E-1,-3.859749E-1,6.5791386E-1,2.3936512E-1,-2.8347903E-1,-1.0111874E0,-8.9770806E-1,-3.1259692E-1,-1.1297582E0,-9.602932E-1,-7.097701E-2,5.8274068E-2,2.1722803E-1,1.8123872E0,-4.8423843E-3,-1.0323336E0,2.2948562E-1,-2.5763046E-2,1.0178326E0,3.0426346E-3,2.3457898E-1,-5.121713E-1,1.07207716E-1,-1.1149959E-2,-5.118097E-1,1.3869132E0,-1.0871626E0,-5.5169696E-1,-6.362725E-1,-1.0068232E0,-9.343149E-1,8.033402E-2,-8.868388E-2,-9.2796177E-1,-9.7931325E-1,-1.6938984E-2,2.743204E0,1.3999304E0,-8.741459E-2,-3.497294E-2,1.122125E-1,3.494794E-2,1.0829991E0,-6.1266845E-1,-6.3050854E-1,4.687556E-1,-4.5862567E-2,5.8151033E-2,-5.0142687E-4,1.6426724E-1,-8.708308E-2,-5.0196152E-2,-7.372001E-2,3.526438E-2,-7.431077E-2,-3.0805718E-2,-8.36861E-2,-6.425105E-2,-3.4335822E-2,-8.211701E-2,-8.0058575E-2,-8.931384E-3,-7.653994E-2,-2.1608511E-2,1.0607918E-1,2.3365307E-1,6.426334E-2,1.6714889E-1,-6.1232224E-2,1.6213468E-1,-6.732942E-2,-1.7818103E-3,-3.7533015E-2,-7.401167E-2,1.04358904E-1,-6.6618145E-2],"categories":[0,1,3,6,7,8,10,11,12,13,14,15,16,19,20,22,23,25,0,0,1,2,3,0,1,5,8,10,11,12],"categories_nodes":[10,14,29,71],"categories_segments":[0,18,19,23],"categories_sizes":[18,1,4,7],"default_left":[0,0,0,0,0,0,0,0,0,0,1,0,0,0,1,0,0,0,0,0,0,0,0,0,0,0,0,0,0,1,0,0,0,0,0,0,0,0,0,0,0,0,0,0,0,0,0,0,0,0,0,0,0,0,0,0,0,0,0,0,0,0,0,0,0,0,0,0,0,0,0,1,0,0,0,0,0,0,0,0,0,0,0,0,0,0,0,0,0,0,0,0,0,0,0,0,0,0,0,0,0,0,0],"id":2,"left_children":[1,3,5,7,9,11,13,15,-1,17,19,21,23,25,27,-1,-1,29,31,33,35,37,39,41,-1,-1,43,45,47,49,-1,51,53,55,57,59,61,-1,-1,-1,63,-1,65,-1,-1,67,-1,69,71,-1,-1,73,75,77,79,81,83,85,-1,-1,87,89,-1,91,93,-1,-1,-1,-1,95,97,99,101,-1,-1,-1,-1,-1,-1,-1,-1,-1,-1,-1,-1,-1,-1,-1,-1,-1,-1,-1,-1,-1,-1,-1,-1,-1,-1,-1,-1,-1,-1],"loss_changes":[8.560545E2,7.881952E1,3.4344345E2,5.09379E1,5.4261536E1,1.5529834E2,1.0631304E2,1.6002426E0,0E0,6.9109314E1,4.737549E0,3.9200867E1,1.1626919E1,5.5799408E1,1.3447601E1,0E0,0E0,1.951575E1,3.1637993E1,4.08226E0,1.6278687E0,6.129971E0,3.5463013E1,2.9701557E0,0E0,0E0,3.529248E1,3.3398638E0,1.1107378E1,6.181351E0,0E0,5.8332542E1,2.9102402E0,4.024826E0,1.3964727E1,3.0880737E-1,1.9736481E0,0E0,0E0,0E0,2.3105408E1,0E0,4.0777493E-1,0E0,0E0,1.5170135E0,0E0,1.8199867E1,1.3865936E1,0E0,0E0,1.5138317E1,1.9438183E1,1.0574951E0,7.202584E0,3.583294E0,7.1242523E-1,2.5716496E-1,0E0,0E0,3.1826057E0,1.7463989E0,0E0,4.282257E0,2.0387512E1,0E0,0E0,0E0,0E0,2.6066542E1,1.9910712E0,4.470619E0,1.6897316E1,0E0,0E0,0E0,0E0,0E0,0E0,0E0,0E0,0E0,0E0,0E0,0E0,0E0,0E0,0E0,0E0,0E0,0E0,0E0,0E0,0E0,0E0,0E0,0E0,0E0,0E0,0E0,0E0,0E0,0E0],"parents":[2147483647,0,0,1,1,2,2,3,3,4,4,5,5,6,6,7,7,9,9,10,10,11,11,12,12,13,13,14,14,17,17,18,18,19,19,20,20,21,21,22,22,23,23,26,26,27,27,28,28,29,29,31,31,32,32,33,33,34,34,35,35,36,36,40,40,42,42,45,45,47,47,48,48,51,51,52,52,53,53,54,54,55,55,56,56,57,57,60,60,61,61,63,63,64,64,69,69,70,70,71,71,72,72],"right_children":[2,4,6,8,10,12,14,16,-1,18,20,22,24,26,28,-1,-1,30,32,34,36,38,40,42,-1,-1,44,46,48,50,-1,52,54,56,58,60,62,-1,-1,-1,64,-1,66,-1,-1,68,-1,70,72,-1,-1,74,76,78,80,82,84,86,-1,-1,88,90,-1,92,94,-1,-1,-1,-1,96,98,100,102,-1,-1,-1,-1,-1,-1,-1,-1,-1,-1,-1,-1,-1,-1,-1,-1,-1,-1,-1,-1,-1,-1,-1,-1,-1,-1,-1,-1,-1,-1],"split_conditions":[5.84E2,-2.689129E0,3E2,4.21E2,3.55E2,1.3724582E0,-2.555061E0,2.8E1,-6.48146E-2,-1.8513247E0,NaN,2.1E1,2.399448E0,2.7E1,NaN,1.1649147E-1,2.728253E-1,9.7993577E-1,1.0564175E0,3.5E1,4.72E2,-1.1947261E0,2.5E2,-8.082849E-1,6.360698E-2,-6.788899E-2,4.26E2,3.53E2,-1.4385978E0,NaN,2.3936512E-1,1.5081908E0,4.501622E0,3.91E2,-1.2071815E-1,-4.5224193E-2,1.8593323E0,-7.097701E-2,5.8274068E-2,2.1722803E-1,-1.333274E0,-4.8423843E-3,7.1E2,2.2948562E-1,-2.5763046E-2,1.4717028E-1,3.0426346E-3,3.88E2,1.6313376E0,1.07207716E-1,-1.1149959E-2,2.7539964E0,2.4E1,3.954494E0,4.23E2,-3.0017835E-1,1.0779445E0,-1.4412206E0,8.033402E-2,-8.868388E-2,3.1E1,2.7539964E0,-1.6938984E-2,2.7E1,2.8633925E-1,-8.741459E-2,-3.497294E-2,1.122125E-1,3.494794E-2,2.6E1,-1.7436078E0,NaN,1.5478424E0,-4.5862567E-2,5.8151033E-2,-5.0142687E-4,1.6426724E-1,-8.708308E-2,-5.0196152E-2,-7.372001E-2,3.526438E-2,-7.431077E-2,-3.0805718E-2,-8.36861E-2,-6.425105E-2,-3.4335822E-2,-8.211701E-2,-8.0058575E-2,-8.931384E-3,-7.653994E-2,-2.1608511E-2,1.0607918E-1,2.3365307E-1,6.426334E-2,1.6714889E-1,-6.1232224E-2,1.6213468E-1,-6.732942E-2,-1.7818103E-3,-3.7533015E-2,-7.401167E-2,1.04358904E-1,-6.6618145E-2],"split_indices":[8,7,10,10,10,7,15,16,0,7,20,16,15,16,21,0,0,4,7,16,8,15,10,14,0,0,10,10,15,19,0,4,15,10,15,4,14,0,0,0,15,0,8,0,0,14,0,10,15,0,0,15,16,7,8,14,15,7,0,0,16,15,0,16,4,0,0,0,0,16,15,20,7,0,0,0,0,0,0,0,0,0,0,0,0,0,0,0,0,0,0,0,0,0,0,0,0,0,0,0,0,0,0],"split_type":[0,0,0,0,0,0,0,0,0,0,1,0,0,0,1,0,0,0,0,0,0,0,0,0,0,0,0,0,0,1,0,0,0,0,0,0,0,0,0,0,0,0,0,0,0,0,0,0,0,0,0,0,0,0,0,0,0,0,0,0,0,0,0,0,0,0,0,0,0,0,0,1,0,0,0,0,0,0,0,0,0,0,0,0,0,0,0,0,0,0,0,0,0,0,0,0,0,0,0,0,0,0,0],"sum_hessian":[1.22789E3,8.5891437E2,3.6897562E2,1.27355795E1,8.4617883E2,1.8778583E2,1.811898E2,7.839139E0,4.896441E0,2.633679E2,5.828109E2,1.6508548E2,2.2700342E1,2.8209545E1,1.5298026E2,3.0112123E0,4.8279266E0,1.3741505E1,2.496264E2,1.7689839E2,4.059125E2,6.6363397E0,1.5844914E2,1.8097668E1,4.6026745E0,5.701476E0,2.250807E1,1.3678986E1,1.3930127E2,9.046484E0,4.6950207E0,1.5008138E2,9.954503E1,1.625473E2,1.4351099E1,2.5116838E2,1.5474413E2,3.2033947E0,3.4329453E0,8.926376E1,6.918539E1,4.185933E0,1.3911736E1,1.894599E1,3.5620792E0,7.715497E0,5.963488E0,2.3395958E1,1.1590531E2,4.3214583E0,4.725025E0,1.3264354E2,1.7437824E1,8.424875E1,1.5296275E1,4.9876476E1,1.1267082E2,1.0065163E1,4.2859373E0,2.171969E2,3.397148E1,1.5054646E2,4.197675E0,1.9508486E1,4.96769E1,1.0890106E1,3.0216286E0,3.4064555E0,4.3090415E0,1.1550857E1,1.1845101E1,1.03746735E2,1.215858E1,1.2468416E2,7.959385E0,6.48203E0,1.0955793E1,7.4228966E1,1.0019783E1,1.0920207E1,4.3760676E0,1.9304018E1,3.0572458E1,7.130033E1,4.1370495E1,3.1495426E0,6.91562E0,2.9457344E1,4.5141354E0,1.460955E2,4.450952E0,4.5889006E0,1.4919586E1,3.0097853E1,1.9579046E1,4.1714315E0,7.379425E0,7.8269987E0,4.018103E0,7.476807E1,2.8978666E1,7.2820354E0,4.876544E0],"tree_param":{"num_deleted":"0","num_feature":"38","num_nodes":"103","size_leaf_vector":"1"}},{"base_weights":[-2.4450529E-1,1.0913359E0,-6.786999E-1,1.6424776E0,-3.1570593E-1,7.3861685E-3,-9.287661E-1,-9.302567E-2,1.8699696E0,1.330778E-1,-4.1883138E-1,7.9245096E-1,-4.1825163E-1,4.8246267E-1,-9.6102786E-1,-5.485534E-1,1.1116829E-1,2.3702397E0,1.2308904E0,-5.270554E-1,8.7579414E-2,2.293617E0,3.2518572E-1,-7.138496E-1,7.1242996E-2,1.5199337E0,-6.994273E-2,-7.677788E-1,-1.0873915E0,-7.331674E-2,-2.260401E-1,2.5377803E0,1.440008E0,-9.463662E-3,2.1898704E0,-2.7140062E-2,-9.5810115E-1,4.040191E-2,2.0819876E-1,6.4698076E-1,-6.2455773E-1,-3.944121E-1,-9.378143E-1,-6.670127E-1,8.6722594E-1,-5.179254E-3,1.8501599E-1,-3.4106714E-1,-9.1867995E-1,-9.420035E-1,-8.700049E-2,1.588818E-2,-5.468356E-1,2.04092E-1,1.8221211E0,1.601448E-1,7.243546E-1,6.1201435E-1,-5.932598E-1,1.3753804E0,1.9128457E-1,1.5701064E0,-4.3369064E-1,-5.873622E-1,-1.0537149E0,9.051099E-2,1.4984086E0,4.3881558E-2,-7.476862E-2,8.227491E-1,-6.2527484E-1,-9.775511E-1,-1.4078678E-2,7.738581E-2,-8.9490426E-1,1.6156324E0,-6.4011365E-1,8.365352E-2,-4.5592365E-1,-7.4906665E-1,-1.0867364E0,5.696901E-2,-1.0183414E0,-4.699917E-3,-7.092218E-2,2.0460611E-2,1.7146859E-1,1.7212139E-1,-5.4695778E-2,1.2780318E-1,1.5852837E-2,-8.027171E-2,9.243805E-3,1.546394E-1,3.4235425E-2,2.0513793E-2,1.8215005E-1,5.924034E-2,-4.9211837E-2,-7.477995E-3,-6.898296E-2,-5.217185E-2,-8.8341385E-2,9.422301E-2,-2.398364E-2,1.9504987E-1,8.405636E-2,9.4571814E-2,1.7908026E-2,-1.7741216E-2,-6.973346E-2,-2.590717E-2,-7.9352014E-2,-2.1419944E-2,-7.652542E-2,1.869235E-1,1.0185803E-2,-7.5391576E-2,-1.8825462E-2,-4.418935E-2,4.8070267E-2,-7.472727E-2,-3.1041393E-2,-6.810552E-2,-8.868021E-2,-8.403486E-2,-5.7845775E-2],"categories":[0,0,1,0,0,0,1,2,3,4,1,0,1,3,4,1,3,4,6,0,0,0,1,2,4,6],"categories_nodes":[1,2,14,15,36,52,57,70,71,74,80],"categories_segments":[0,1,3,4,5,10,11,15,19,20,21],"categories_sizes":[1,2,1,1,5,1,4,4,1,1,5],"default_left":[0,1,1,0,0,0,0,0,0,0,0,0,0,0,1,1,0,0,0,0,0,0,0,0,0,0,0,0,0,0,0,0,0,0,0,0,1,0,0,0,0,0,0,0,0,0,0,0,0,0,0,0,1,0,0,0,0,1,0,0,0,0,0,0,0,0,0,0,0,0,1,1,0,0,1,0,0,0,0,0,1,0,0,0,0,0,0,0,0,0,0,0,0,0,0,0,0,0,0,0,0,0,0,0,0,0,0,0,0,0,0,0,0,0,0,0,0,0,0,0,0,0,0,0,0,0,0],"id":3,"left_children":[1,3,5,7,9,11,13,15,17,-1,19,21,23,25,27,29,-1,31,33,35,-1,37,39,41,43,45,-1,47,49,-1,51,53,55,57,59,61,63,-1,-1,65,67,69,71,73,75,-1,-1,77,79,81,-1,-1,83,-1,85,-1,87,89,91,93,-1,95,97,99,101,103,105,-1,-1,107,109,111,-1,-1,113,115,117,-1,119,121,123,-1,125,-1,-1,-1,-1,-1,-1,-1,-1,-1,-1,-1,-1,-1,-1,-1,-1,-1,-1,-1,-1,-1,-1,-1,-1,-1,-1,-1,-1,-1,-1,-1,-1,-1,-1,-1,-1,-1,-1,-1,-1,-1,-1,-1,-1],"loss_changes":[6.965841E2,2.2903128E2,1.5545099E2,8.383356E1,1.8453274E1,8.1534355E1,3.0695435E1,1.8728674E1,5.6992615E1,0E0,1.4216925E1,5.942323E1,2.2946005E1,2.3827211E1,1.5025879E1,2.470283E0,0E0,1.2558533E1,1.0036383E2,1.635829E1,0E0,1.3640572E1,2.0753065E1,6.694683E0,3.612221E1,1.3311342E1,0E0,1.6440979E1,1.6303711E0,0E0,1.8805999E0,2.8982544E0,6.9365234E0,1.4069925E1,8.408188E0,2.4209759E1,8.2736206E-1,0E0,0E0,2.3659704E1,7.8483844E0,1.2435563E1,1.5382576E0,1.3109088E1,3.435799E1,0E0,0E0,1.1942378E1,4.6482697E0,1.3892426E1,0E0,0E0,1.3358388E0,0E0,9.758625E0,0E0,2.3870892E1,7.6901035E0,6.6029944E0,8.166115E0,0E0,7.3102226E0,7.951692E0,1.5387294E0,3.641739E-1,1.4824342E1,5.527611E0,0E0,0E0,1.4540162E0,3.8477297E0,1.6488113E0,0E0,0E0,1.5446396E0,2.410624E1,1.1833096E0,0E0,8.861665E0,7.265438E0,2.7986908E-1,0E0,1.1890106E0,0E0,0E0,0E0,0E0,0E0,0E0,0E0,0E0,0E0,0E0,0E0,0E0,0E0,0E0,0E0,0E0,0E0,0E0,0E0,0E0,0E0,0E0,0E0,0E0,0E0,0E0,0E0,0E0,0E0,0E0,0E0,0E0,0E0,0E0,0E0,0E0,0E0,0E0,0E0,0E0,0E0,0E0,0E0,0E0],"parents":[2147483647,0,0,1,1,2,2,3,3,4,4,5,5,6,6,7,7,8,8,10,10,11,11,12,12,13,13,14,14,15,15,17,17,18,18,19,19,21,21,22,22,23,23,24,24,25,25,27,27,28,28,30,30,31,31,32,32,33,33,34,34,35,35,36,36,39,39,40,40,41,41,42,42,43,43,44,44,47,47,48,48,49,49,52,52,54,54,56,56,57,57,58,58,59,59,61,61,62,62,63,63,64,64,65,65,66,66,69,69,70,70,71,71,74,74,75,75,76,76,78,78,79,79,80,80,82,82],"right_children":[2,4,6,8,10,12,14,16,18,-1,20,22,24,26,28,30,-1,32,34,36,-1,38,40,42,44,46,-1,48,50,-1,52,54,56,58,60,62,64,-1,-1,66,68,70,72,74,76,-1,-1,78,80,82,-1,-1,84,-1,86,-1,88,90,92,94,-1,96,98,100,102,104,106,-1,-1,108,110,112,-1,-1,114,116,118,-1,120,122,124,-1,126,-1,-1,-1,-1,-1,-1,-1,-1,-1,-1,-1,-1,-1,-1,-1,-1,-1,-1,-1,-1,-1,-1,-1,-1,-1,-1,-1,-1,-1,-1,-1,-1,-1,-1,-1,-1,-1,-1,-1,-1,-1,-1,-1,-1],"split_conditions":[3E2,NaN,NaN,2.2E1,-2.6303318E0,3.58E2,-3.0303943E0,5.99673E-1,1.107606E0,1.330778E-1,2.5578578E0,-6.993771E-1,3.1E1,4.21E2,NaN,NaN,1.1116829E-1,1.89E2,1.193382E0,1.3450285E0,8.7579414E-2,2.7E1,1.8E2,3.99E2,-1.3692569E0,2.9E1,-6.994273E-2,3.54E2,3.56E2,-7.331674E-2,2.23E2,6.137331E-1,1.95E2,1.8E2,1.8932227E0,1.81E2,NaN,4.040191E-2,2.0819876E-1,8.1126964E-1,-2.9819646E-1,-2.3111227E0,4.1706815E0,-3.2066603E0,2.3608384E0,-5.179254E-3,1.8501599E-1,-2.2739244E0,4.16E2,-1.1947261E0,-8.700049E-2,1.588818E-2,NaN,2.04092E-1,-1.5823668E-1,1.601448E-1,-2.4284499E0,NaN,3.7152472E-1,2.52E2,1.9128457E-1,4.2661586E-1,-8.72635E-1,2.301377E0,-6.971917E-1,1.7985407E-1,-3.835289E-1,4.3881558E-2,-7.476862E-2,1.78E2,NaN,NaN,-1.4078678E-2,7.738581E-2,NaN,-1.1864411E0,-3.0983002E0,8.365352E-2,8.637049E-1,-6.6881413E-3,NaN,5.696901E-2,1.716813E0,-4.699917E-3,-7.092218E-2,2.0460611E-2,1.7146859E-1,1.7212139E-1,-5.4695778E-2,1.2780318E-1,1.5852837E-2,-8.027171E-2,9.243805E-3,1.546394E-1,3.4235425E-2,2.0513793E-2,1.8215005E-1,5.924034E-2,-4.9211837E-2,-7.477995E-3,-6.898296E-2,-5.217185E-2,-8.8341385E-2,9.422301E-2,-2.398364E-2,1.9504987E-1,8.405636E-2,9.4571814E-2,1.7908026E-2,-1.7741216E-2,-6.973346E-2,-2.590717E-2,-7.9352014E-2,-2.1419944E-2,-7.652542E-2,1.869235E-1,1.0185803E-2,-7.5391576E-2,-1.8825462E-2,-4.418935E-2,4.8070267E-2,-7.472727E-2,-3.1041393E-2,-6.810552E-2,-8.868021E-2,-8.403486E-2,-5.7845775E-2],"split_indices":[10,34,34,16,13,10,15,13,15,0,13,15,16,10,34,28,0,1,13,15,0,16,1,10,13,16,0,10,10,0,10,15,10,1,13,1,19,0,0,13,13,4,15,15,13,0,0,4,10,15,0,0,34,0,4,0,15,34,13,10,0,4,4,15,14,15,4,0,0,1,19,21,0,0,25,4,4,0,4,13,19,0,15,0,0,0,0,0,0,0,0,0,0,0,0,0,0,0,0,0,0,0,0,0,0,0,0,0,0,0,0,0,0,0,0,0,0,0,0,0,0,0,0,0,0,0,0],"split_type":[0,1,1,0,0,0,0,0,0,0,0,0,0,0,1,1,0,0,0,0,0,0,0,0,0,0,0,0,0,0,0,0,0,0,0,0,1,0,0,0,0,0,0,0,0,0,0,0,0,0,0,0,1,0,0,0,0,1,0,0,0,0,0,0,0,0,0,0,0,0,1,1,0,0,1,0,0,0,0,0,1,0,0,0,0,0,0,0,0,0,0,0,0,0,0,0,0,0,0,0,0,0,0,0,0,0,0,0,0,0,0,0,0,0,0,0,0,0,0,0,0,0,0,0,0,0,0],"sum_hessian":[1.198699E3,2.9367288E2,9.050261E2,2.1089677E2,8.27761E1,2.4201096E2,6.6301514E2,2.4509377E1,1.8638739E2,3.2035828E0,7.957252E1,8.477904E1,1.5723192E2,1.450641E1,6.485087E2,1.9421322E1,5.088053E0,1.0302822E2,8.335917E1,7.5034004E1,4.5385113E0,1.9196987E1,6.558205E1,9.7746216E1,5.948571E1,8.2676325E0,6.2387776E0,2.5919513E2,3.893136E2,7.707566E0,1.1713757E1,8.583982E1,1.71884E1,3.6778996E1,4.6580173E1,3.523378E1,3.9800224E1,4.1384296E0,1.50585575E1,4.9222958E1,1.6359093E1,4.142434E1,5.6321877E1,3.0946022E1,2.853969E1,3.310837E0,4.9567957E0,6.856637E1,1.9062877E2,1.01108116E2,2.8820547E2,5.133569E0,6.5801883E0,7.078571E1,1.5054111E1,8.00655E0,9.1818495E0,1.7791153E1,1.898784E1,1.4207321E1,3.2372852E1,6.5679092E0,2.866587E1,9.624519E0,3.0175707E1,3.0436684E1,1.8786274E1,3.5647643E0,1.2794329E1,6.1956506E0,3.5228687E1,5.322137E1,3.1005032E0,3.2926724E0,2.7653349E1,1.9022848E1,9.516843E0,4.4588575E0,6.410751E1,9.7590965E1,9.30378E1,4.003077E0,9.710504E1,3.3910017E0,3.1891866E0,3.5156138E0,1.1538496E1,4.188984E0,4.9928656E0,4.072075E0,1.3719078E1,1.1321665E1,7.666177E0,7.7076726E0,6.499648E0,3.0201309E0,3.5477784E0,3.821445E0,2.4844425E1,4.260279E0,5.3642406E0,7.9663606E0,2.2209347E1,7.4264374E0,2.3010246E1,3.733975E0,1.5052299E1,3.0050933E0,3.190557E0,1.5533811E1,1.9694876E1,4.9668484E0,4.8254524E1,4.5103273E0,2.3143023E1,1.18191E1,7.203747E0,4.2899E0,5.2269425E0,5.8107494E1,6.0000215E0,5.7820286E1,3.977068E1,2.7883814E1,6.515399E1,7.251756E1,2.4587477E1],"tree_param":{"num_deleted":"0","num_feature":"38","num_nodes":"127","size_leaf_vector":"1"}},{"base_weights":[-2.1787666E-1,6.70398E-1,-6.307767E-1,-5.152273E-1,1.1456109E0,-1.0266702E0,-3.345535E-1,7.819361E-1,-7.134264E-1,-1.5383941E-1,1.4926225E0,2.12869E-1,-1.060179E0,-7.808545E-1,4.643832E-1,-5.139392E-2,1.5846943E0,-7.9356134E-1,4.5457393E-2,-7.110107E-1,9.234246E-1,8.6997575E-1,1.7134064E0,-7.3641434E-2,9.953101E-2,-1.0782912E0,8.819333E-3,-8.7714297E-1,1.9408389E0,1.0307525E0,-1.8499967E-1,4.9485963E-2,1.5408023E-1,-9.815701E-1,-5.5436957E-1,-8.38313E-1,8.079122E-3,4.220055E-1,1.4158481E-1,1.394696E-1,1.99207E0,1.9572543E0,9.7967964E-1,-6.75862E-1,-1.1025614E0,-1.0287662E0,-4.362741E-1,1.7482892E-1,6.748379E-2,1.3794554E0,2.907737E-1,1.4288627E-1,-3.1582078E-1,-8.0439664E-2,-2.0117862E-2,-7.193051E-1,1.2009112E-1,-2.3306288E-1,-9.986502E-1,-1.461454E-1,1.4336087E-1,-5.164309E-2,2.8963953E-1,1.1006984E0,1.8369412E-1,1.664179E0,1.8360895E-1,5.1641446E-1,1.380197E-1,-8.658163E-2,5.0579507E-2,-9.02054E-1,-8.6552225E-2,-1.0566227E0,-4.3408743E-1,-7.974428E-1,6.133948E-1,7.0609164E-1,1.7345893E-1,-8.076433E-2,1.2815103E-1,-4.529408E-1,9.243682E-1,-2.5367027E-2,-7.266843E-2,4.7976077E-2,-3.976991E-2,-6.037096E-2,3.765595E-2,-5.0817765E-2,-8.291771E-2,4.8093412E-2,-4.3015808E-2,-5.0671685E-2,3.724084E-2,3.0837385E-2,1.3223308E-1,1.7592153E-1,1.0456243E-1,1.304053E-1,1.9749925E-2,-8.344831E-2,-2.2213288E-2,-8.2241446E-2,-2.2011943E-2,-3.727974E-3,-7.317785E-2,-2.9573733E-2,-8.415473E-2,2.1490353E-1,-3.1217245E-2,1.5139662E-1,1.4382108E-2,7.242127E-2,-3.5420835E-2,-1.1869065E-2,-6.378544E-2,1.155907E-1,7.5602597E-3],"categories":[0,1,2,3,0,0,3,4,2,3,0,1,3,4,0,3,4,0,2,3,4,0,2,3,5,6,7,8,9,10,11,12,13,14,15,16,17,18,20,21,22,23,25,0,1,3,4,3,0,1,0,1,3,5,6,0,1,3,0,2,3,4,0,1,2,3,4,5,6,7,8,9,10,0,0,2,3,4,3,0,1],"categories_nodes":[0,3,14,22,25,28,29,30,44,55,56,57,58,59,65,74,75,77,81,82],"categories_segments":[0,2,4,5,8,10,14,17,21,43,47,48,50,55,58,62,73,74,78,79],"categories_sizes":[2,2,1,3,2,4,3,4,22,4,1,2,5,3,4,11,1,4,1,2],"default_left":[1,0,0,1,0,0,0,0,0,0,0,0,0,0,1,0,0,0,0,0,0,0,1,0,0,1,0,0,1,1,1,0,0,0,0,0,0,0,0,0,0,0,0,0,1,0,0,0,0,0,0,0,0,0,0,1,1,1,1,1,0,0,0,0,0,1,0,0,0,0,0,0,0,0,1,1,0,1,0,0,0,1,1,0,0,0,0,0,0,0,0,0,0,0,0,0,0,0,0,0,0,0,0,0,0,0,0,0,0,0,0,0,0,0,0,0,0,0,0],"id":4,"left_children":[1,3,5,7,9,11,13,15,17,19,21,23,25,27,29,-1,31,33,-1,35,37,39,41,-1,-1,43,-1,45,47,49,51,-1,-1,53,55,57,-1,59,-1,61,63,65,67,69,71,73,75,-1,-1,77,79,-1,81,-1,-1,83,85,87,89,91,-1,-1,93,95,-1,97,-1,99,-1,-1,-1,101,-1,103,105,107,109,111,-1,113,-1,115,117,-1,-1,-1,-1,-1,-1,-1,-1,-1,-1,-1,-1,-1,-1,-1,-1,-1,-1,-1,-1,-1,-1,-1,-1,-1,-1,-1,-1,-1,-1,-1,-1,-1,-1,-1,-1],"loss_changes":[4.3167767E2,2.1108958E2,9.38519E1,2.8218706E1,1.2063431E2,1.44844055E1,1.6471329E2,1.8244947E1,1.0296104E1,3.4979404E1,2.7492828E1,1.3819857E1,7.242523E0,7.930063E1,6.1179855E1,0E0,2.6125507E0,3.4516983E0,0E0,4.0642204E0,8.44989E0,4.6626232E1,2.5745422E1,0E0,0E0,2.4725037E0,0E0,1.8714005E1,1.7511482E0,2.249324E1,2.1523602E1,0E0,0E0,2.0871277E0,4.692116E0,2.989727E0,0E0,1.1967461E1,0E0,4.558714E0,5.466675E0,1.0782074E1,1.4497459E1,1.3664835E1,6.272888E-1,3.0627747E0,2.8959251E1,0E0,0E0,3.4117233E1,1.5366945E1,0E0,1.30482025E1,0E0,0E0,2.653738E0,3.230535E0,3.7038732E0,6.33049E-3,3.926936E0,0E0,0E0,6.07726E0,3.172346E0,0E0,1.0538071E1,0E0,7.9422345E0,0E0,0E0,0E0,4.3820305E0,0E0,2.2232056E0,2.2027152E0,6.5391693E0,4.5378662E1,2.300117E1,0E0,9.95739E0,0E0,7.5058727E0,3.5726385E0,0E0,0E0,0E0,0E0,0E0,0E0,0E0,0E0,0E0,0E0,0E0,0E0,0E0,0E0,0E0,0E0,0E0,0E0,0E0,0E0,0E0,0E0,0E0,0E0,0E0,0E0,0E0,0E0,0E0,0E0,0E0,0E0,0E0,0E0,0E0,0E0],"parents":[2147483647,0,0,1,1,2,2,3,3,4,4,5,5,6,6,7,7,8,8,9,9,10,10,11,11,12,12,13,13,14,14,16,16,17,17,19,19,20,20,21,21,22,22,25,25,27,27,28,28,29,29,30,30,33,33,34,34,35,35,37,37,39,39,40,40,41,41,42,42,43,43,44,44,45,45,46,46,49,49,50,50,52,52,55,55,56,56,57,57,58,58,59,59,62,62,63,63,65,65,67,67,71,71,73,73,74,74,75,75,76,76,77,77,79,79,81,81,82,82],"right_children":[2,4,6,8,10,12,14,16,18,20,22,24,26,28,30,-1,32,34,-1,36,38,40,42,-1,-1,44,-1,46,48,50,52,-1,-1,54,56,58,-1,60,-1,62,64,66,68,70,72,74,76,-1,-1,78,80,-1,82,-1,-1,84,86,88,90,92,-1,-1,94,96,-1,98,-1,100,-1,-1,-1,102,-1,104,106,108,110,112,-1,114,-1,116,118,-1,-1,-1,-1,-1,-1,-1,-1,-1,-1,-1,-1,-1,-1,-1,-1,-1,-1,-1,-1,-1,-1,-1,-1,-1,-1,-1,-1,-1,-1,-1,-1,-1,-1,-1,-1],"split_conditions":[NaN,5.3E1,5.4E1,NaN,1.67E2,-2.5520966E0,1.74E2,4.1E1,2.3284912E0,-5.181899E-1,1.73E2,1.76E2,2.7738144E0,1.5081908E0,NaN,-5.139392E-2,1.82E2,1.79E2,4.5457393E-2,-4.6415773E-1,6.7E1,-6.554784E-2,NaN,-7.3641434E-2,9.953101E-2,NaN,8.819333E-3,-1.6166003E-1,NaN,NaN,NaN,4.9485963E-2,1.5408023E-1,4.585787E-1,4.9E1,-2.5131412E0,8.079122E-3,1.2415088E0,1.4158481E-1,5.6E1,6.607083E-1,2.1015143E-1,6.3E1,4.2E1,NaN,1.73E2,6.5E1,1.7482892E-1,6.748379E-2,-1.9476612E-1,2.8367496E0,1.4288627E-1,1.87E2,-8.0439664E-2,-2.0117862E-2,NaN,NaN,NaN,NaN,NaN,1.4336087E-1,-5.164309E-2,-2.1057227E0,7.874021E-1,1.8369412E-1,NaN,1.8360895E-1,-1.0359765E0,1.380197E-1,-8.658163E-2,5.0579507E-2,-6.5368055E-3,-8.6552225E-2,2.355501E-1,NaN,NaN,-8.1520605E-1,NaN,1.7345893E-1,-3.6926037E-1,1.2815103E-1,NaN,NaN,-2.5367027E-2,-7.266843E-2,4.7976077E-2,-3.976991E-2,-6.037096E-2,3.765595E-2,-5.0817765E-2,-8.291771E-2,4.8093412E-2,-4.3015808E-2,-5.0671685E-2,3.724084E-2,3.0837385E-2,1.3223308E-1,1.7592153E-1,1.0456243E-1,1.304053E-1,1.9749925E-2,-8.344831E-2,-2.2213288E-2,-8.2241446E-2,-2.2011943E-2,-3.727974E-3,-7.317785E-2,-2.9573733E-2,-8.415473E-2,2.1490353E-1,-3.1217245E-2,1.5139662E-1,1.4382108E-2,7.242127E-2,-3.5420835E-2,-1.1869065E-2,-6.378544E-2,1.155907E-1,7.5602597E-3],"split_indices":[34,0,0,36,1,6,1,0,4,6,1,1,4,4,34,0,1,1,0,4,0,4,36,0,0,36,0,6,36,36,36,0,0,4,0,4,0,4,0,0,4,4,0,0,20,1,0,0,0,4,6,0,1,0,0,19,34,37,19,30,0,0,6,6,0,36,0,4,0,0,0,4,0,4,20,34,4,36,0,4,0,36,37,0,0,0,0,0,0,0,0,0,0,0,0,0,0,0,0,0,0,0,0,0,0,0,0,0,0,0,0,0,0,0,0,0,0,0,0],"split_type":[1,0,0,1,0,0,0,0,0,0,0,0,0,0,1,0,0,0,0,0,0,0,1,0,0,1,0,0,1,1,1,0,0,0,0,0,0,0,0,0,0,0,0,0,1,0,0,0,0,0,0,0,0,0,0,1,1,1,1,1,0,0,0,0,0,1,0,0,0,0,0,0,0,0,1,1,0,1,0,0,0,1,1,0,0,0,0,0,0,0,0,0,0,0,0,0,0,0,0,0,0,0,0,0,0,0,0,0,0,0,0,0,0,0,0,0,0,0,0],"sum_hessian":[1.1748225E3,3.7260696E2,8.022156E2,1.06589325E2,2.6601764E2,3.4228967E2,4.5992593E2,1.373725E1,9.285207E1,5.618372E1,2.0983392E2,8.868759E0,3.334209E2,2.951001E2,1.6482582E2,4.948663E0,8.788588E0,8.785572E1,4.996352E0,3.7255043E1,1.892868E1,5.622125E1,1.5361267E2,4.316929E0,4.5518303E0,3.284416E2,4.9793134E0,2.8567133E2,9.428796E0,8.772652E1,7.709931E1,3.5245607E0,5.2640266E0,4.7453087E1,4.0402637E1,3.2206284E1,5.048759E0,1.3212628E1,5.7160516E0,3.47334E1,2.1487852E1,1.1404367E2,3.9568996E1,2.032219E1,3.081194E2,2.1157362E2,7.4097694E1,6.268928E0,3.1598678E0,5.9040478E1,2.8686039E1,3.8319402E0,7.326737E1,4.294473E1,4.508355E0,3.2410374E1,7.9922614E0,7.2588263E0,2.4947456E1,1.0135441E1,3.0771878E0,4.8709E0,2.9862497E1,7.8666906E0,1.3621161E1,7.120174E1,4.2841934E1,2.633527E1,1.32337265E1,1.5285287E1,5.0369034E0,4.0122833E1,2.6799655E2,2.0136429E2,1.0209327E1,5.5307762E1,1.8789932E1,3.452407E1,2.4516405E1,2.334658E1,5.3394594E0,6.6544716E1,6.722657E0,1.2918351E1,1.9492023E1,4.472276E0,3.519985E0,4.0618477E0,3.1969786E0,6.729178E0,1.8218279E1,3.3603497E0,6.7750907E0,4.703031E0,2.5159466E1,4.4892397E0,3.3774512E0,2.081143E1,5.039031E1,3.721565E0,2.2613705E1,3.0155844E1,9.96699E0,1.9681203E2,4.5522637E0,6.4940763E0,3.7152507E0,2.429714E1,3.1010622E1,5.4176683E0,1.3372263E1,9.199368E0,2.5324705E1,5.927422E0,1.7419157E1,3.804342E1,2.8501293E1,3.4548705E0,3.267787E0],"tree_param":{"num_deleted":"0","num_feature":"38","num_nodes":"119","size_leaf_vector":"1"}},{"base_weights":[-2.094575E-1,-8.099366E-1,3.596776E-1,-9.93641E-1,-4.236744E-1,-2.9027557E-1,1.6843889E0,-1.0179961E0,-6.1640036E-1,-6.354237E-1,1.7397226E0,1.8409444E0,-4.3904763E-1,-3.6767772E-1,1.7863501E0,-1.0285398E0,-4.8799405E-1,9.331632E-2,-9.2787683E-1,-8.496797E-1,2.8376898E-1,2.921639E-2,1.7402083E-1,2.1899028E-1,2.382076E0,-7.4743605E-1,4.063406E-1,-6.707871E-2,2.6455164E-2,1.0182238E0,2.0166175E0,-1.1131191E0,-9.6723354E-1,1.9209771E-3,-6.0907103E-2,-1.0289689E0,-1.6212057E-2,-6.452809E-1,-9.782364E-1,6.1519265E-1,-7.0752814E-2,-5.415715E-2,8.386184E-2,1.1034688E-1,2.0416445E-1,-8.998805E-1,3.9676633E-1,-8.3811134E-2,1.5485296E0,-1.2574124E-1,1.4045088E0,2.2037227E0,1.6618271E0,-3.8220953E-2,-8.688333E-2,-8.531293E-1,-8.134663E-2,-3.6191482E-2,-8.576131E-2,-9.060249E-1,-1.8349E-2,-1.0172274E0,-1.5975583E-2,-9.2736505E-2,1.2258826E0,-9.274146E-1,4.191683E-2,-6.884455E-1,2.2682273E0,3.6209905E-1,-7.726957E-1,2.5284941E0,4.5485914E-1,2.5891216E-2,-4.569813E-2,2.1069427E0,7.0289344E-1,1.7459075E-1,3.858678E-2,9.055926E-3,1.776773E0,-1.3596149E-2,-6.7473195E-2,-1.9468235E-2,-7.900253E-2,-4.777787E-2,9.691047E-2,-8.1583E-2,-4.9335767E-2,1.1023512E-1,-6.5752044E-2,1.1776522E-1,1.878057E-2,-7.704745E-2,-2.6792591E-2,5.632263E-2,-7.365465E-2,9.857023E-2,1.974675E-1,-1.4538143E-2,1.409543E-1,2.4215816E-2,-7.221849E-2,2.385606E-1,9.267592E-2,-9.243593E-3,7.230228E-2,1.7330812E-1,8.234512E-2,-2.2191536E-2,7.5937435E-2,1.4604264E-1,3.7791647E-2],"categories":[0,0,1,2,0,1],"categories_nodes":[32,35,49],"categories_segments":[0,1,4],"categories_sizes":[1,3,2],"default_left":[0,0,0,0,0,0,0,0,0,0,0,0,0,0,0,0,0,0,0,0,0,0,0,0,0,0,0,0,0,0,0,0,1,0,0,1,0,0,0,0,0,0,0,0,0,0,0,0,0,1,0,0,0,0,0,0,0,0,0,0,0,0,0,0,0,0,0,0,0,0,0,0,0,0,0,0,0,0,0,0,0,0,0,0,0,0,0,0,0,0,0,0,0,0,0,0,0,0,0,0,0,0,0,0,0,0,0,0,0,0,0,0,0],"id":5,"left_children":[1,3,5,7,9,11,13,15,17,19,21,23,25,27,29,31,33,-1,35,37,39,-1,-1,41,43,45,47,-1,-1,49,51,53,55,-1,-1,57,-1,59,61,63,-1,-1,-1,-1,-1,65,67,69,71,73,75,77,79,-1,-1,81,-1,-1,-1,83,85,87,-1,89,91,93,-1,95,97,99,101,103,105,-1,-1,107,109,-1,-1,-1,111,-1,-1,-1,-1,-1,-1,-1,-1,-1,-1,-1,-1,-1,-1,-1,-1,-1,-1,-1,-1,-1,-1,-1,-1,-1,-1,-1,-1,-1,-1,-1,-1],"loss_changes":[3.9157477E2,3.913324E1,5.0718564E2,2.8364563E0,8.4207726E1,1.262551E2,4.1216003E1,1.4686279E0,1.5637184E1,3.2927055E1,1.0982914E1,2.2306297E1,9.693246E1,3.9205828E0,3.0640686E1,7.1139526E-1,1.4010265E0,0E0,1.3958607E0,2.9120483E0,1.3415277E1,0E0,0E0,6.9340277E0,1.3108063E0,4.7788208E1,5.5954643E1,0E0,0E0,1.9908085E1,5.7105713E0,1.1611938E0,1.3202362E0,0E0,0E0,4.354229E-1,0E0,8.9745655E0,2.214592E0,1.1268227E1,0E0,0E0,0E0,0E0,0E0,1.0077637E1,6.789944E1,2.2004059E1,3.0995361E1,2.8591177E0,1.5010605E1,1.0083405E1,9.162003E0,0E0,0E0,1.6532898E0,0E0,0E0,0E0,2.8926811E0,1.4115379E1,6.63414E-1,0E0,1.6316265E1,3.8627472E0,1.0252975E1,0E0,9.019104E0,3.832016E-1,3.588394E1,5.4820023E0,8.250839E0,4.439721E0,0E0,0E0,1.5007019E-1,5.4958076E0,0E0,0E0,0E0,7.153244E0,0E0,0E0,0E0,0E0,0E0,0E0,0E0,0E0,0E0,0E0,0E0,0E0,0E0,0E0,0E0,0E0,0E0,0E0,0E0,0E0,0E0,0E0,0E0,0E0,0E0,0E0,0E0,0E0,0E0,0E0,0E0,0E0],"parents":[2147483647,0,0,1,1,2,2,3,3,4,4,5,5,6,6,7,7,8,8,9,9,10,10,11,11,12,12,13,13,14,14,15,15,16,16,18,18,19,19,20,20,23,23,24,24,25,25,26,26,29,29,30,30,31,31,32,32,35,35,37,37,38,38,39,39,45,45,46,46,47,47,48,48,49,49,50,50,51,51,52,52,55,55,59,59,60,60,61,61,63,63,64,64,65,65,67,67,68,68,69,69,70,70,71,71,72,72,75,75,76,76,80,80],"right_children":[2,4,6,8,10,12,14,16,18,20,22,24,26,28,30,32,34,-1,36,38,40,-1,-1,42,44,46,48,-1,-1,50,52,54,56,-1,-1,58,-1,60,62,64,-1,-1,-1,-1,-1,66,68,70,72,74,76,78,80,-1,-1,82,-1,-1,-1,84,86,88,-1,90,92,94,-1,96,98,100,102,104,106,-1,-1,108,110,-1,-1,-1,112,-1,-1,-1,-1,-1,-1,-1,-1,-1,-1,-1,-1,-1,-1,-1,-1,-1,-1,-1,-1,-1,-1,-1,-1,-1,-1,-1,-1,-1,-1,-1,-1],"split_conditions":[3.28E2,3.5559303E-1,-6.206829E-1,1.90446E5,1.9215254E0,-2.5269153E0,1.64E2,2.0142696E0,1.5088884E0,2.91E2,-7.345744E-1,4.68E2,-2.7374175E-1,-1.6166003E-1,3.59E2,2.41E2,-8.6618304E-2,9.331632E-2,-1.0951319E0,1.155969E0,1.9855962E0,2.921639E-2,1.7402083E-1,1.10613E5,-2.3041022E0,1.76E2,4.1E2,-6.707871E-2,2.6455164E-2,2.4986938E-1,7.030712E-1,-1.765405E0,NaN,1.9209771E-3,-6.0907103E-2,NaN,-1.6212057E-2,1.35621E5,1.86768E5,1.3149E5,-7.0752814E-2,-5.415715E-2,8.386184E-2,1.1034688E-1,2.0416445E-1,1.2847984E-1,-2.1884549E0,2.2305098E0,-2.0904872E0,NaN,1.8E2,1.39075E5,1.1721E5,-3.8220953E-2,-8.688333E-2,-1.9223225E0,-8.134663E-2,-3.6191482E-2,-8.576131E-2,1.82E2,1.5385579E0,3.954494E0,-1.5975583E-2,-2.061495E-1,8.7146777E-1,1.73E2,4.191683E-2,-1.8125777E0,-1.6598146E0,1.48476E5,1.64E2,-1.1283609E0,3.097942E-1,2.5891216E-2,-4.569813E-2,-1.4225635E-1,-7.924119E-1,1.7459075E-1,3.858678E-2,9.055926E-3,5.803707E-1,-1.3596149E-2,-6.7473195E-2,-1.9468235E-2,-7.900253E-2,-4.777787E-2,9.691047E-2,-8.1583E-2,-4.9335767E-2,1.1023512E-1,-6.5752044E-2,1.1776522E-1,1.878057E-2,-7.704745E-2,-2.6792591E-2,5.632263E-2,-7.365465E-2,9.857023E-2,1.974675E-1,-1.4538143E-2,1.409543E-1,2.4215816E-2,-7.221849E-2,2.385606E-1,9.267592E-2,-9.243593E-3,7.230228E-2,1.7330812E-1,8.234512E-2,-2.2191536E-2,7.5937435E-2,1.4604264E-1,3.7791647E-2],"split_indices":[9,11,11,3,6,7,1,14,7,9,7,9,6,6,9,9,5,0,11,7,7,0,0,3,6,1,9,0,0,11,6,14,17,0,0,30,0,3,3,3,0,0,0,0,0,7,11,6,11,30,1,3,3,0,0,5,0,0,0,1,11,7,0,6,7,1,0,7,11,3,1,7,6,0,0,7,5,0,0,0,7,0,0,0,0,0,0,0,0,0,0,0,0,0,0,0,0,0,0,0,0,0,0,0,0,0,0,0,0,0,0,0,0],"split_type":[0,0,0,0,0,0,0,0,0,0,0,0,0,0,0,0,0,0,0,0,0,0,0,0,0,0,0,0,0,0,0,0,1,0,0,1,0,0,0,0,0,0,0,0,0,0,0,0,0,1,0,0,0,0,0,0,0,0,0,0,0,0,0,0,0,0,0,0,0,0,0,0,0,0,0,0,0,0,0,0,0,0,0,0,0,0,0,0,0,0,0,0,0,0,0,0,0,0,0,0,0,0,0,0,0,0,0,0,0,0,0,0,0],"sum_hessian":[1.1439281E3,5.5643036E2,5.874977E2,3.760231E2,1.8040724E2,3.9464896E2,1.9284875E2,3.5162335E2,2.4399757E1,1.6496687E2,1.5440371E1,2.5009111E1,3.6963983E2,9.005167E0,1.8384358E2,3.4384244E2,7.780912E0,3.1204405E0,2.1279316E1,1.3384448E2,3.1122383E1,4.818386E0,1.0621985E1,6.6078486E0,1.8401262E1,2.7092517E2,9.8714676E1,5.1275363E0,3.877631E0,4.3651806E1,1.4019179E2,1.3728473E2,2.0655772E2,3.253801E0,4.5271106E0,1.8265455E1,3.0138612E0,5.400253E1,7.984196E1,2.4801271E1,6.321111E0,3.3049111E0,3.3029373E0,5.6361103E0,1.2765152E1,2.392614E2,3.166377E1,6.9721466E1,2.8993206E1,1.11894045E1,3.2462402E1,8.837456E1,5.1817223E1,5.210764E0,1.3207396E2,9.783795E1,1.08719765E2,3.4062898E0,1.4859166E1,3.782554E1,1.6176992E1,7.5687096E1,4.15486E0,1.1878974E1,1.29222975E1,2.35145E2,4.1163864E0,2.0442076E1,1.1221696E1,4.2612843E1,2.7108625E1,1.4599575E1,1.439363E1,5.778122E0,5.411283E0,1.5220831E1,1.724157E1,8.436839E1,4.006164E0,3.7315378E0,4.8085686E1,4.061961E0,9.377599E1,6.555906E0,3.1269632E1,1.1341706E1,4.8352857E0,6.557814E1,1.0108953E1,3.6652157E0,8.213758E0,9.385734E0,3.5365644E0,2.0662228E2,2.8522726E1,3.011518E0,1.7430557E1,3.9127688E0,7.3089266E0,3.1656406E1,1.0956436E1,3.5344977E0,2.357413E1,9.180318E0,5.419258E0,6.9533668E0,7.4402637E0,1.2211247E1,3.009584E0,3.874149E0,1.336742E1,4.327276E1,4.8129244E0],"tree_param":{"num_deleted":"0","num_feature":"38","num_nodes":"113","size_leaf_vector":"1"}},{"base_weights":[-2.0093901E-1,8.710068E-1,-6.016087E-1,-5.9200954E-1,1.4452939E0,3.5588004E-2,-8.5495794E-1,3.7684125E-1,-8.4004563E-1,1.6978357E0,3.3472863E-1,-5.5131006E-1,8.393801E-1,-9.8352635E-1,-4.1128868E-1,-3.067898E-1,1.3289753E0,-9.5327765E-1,-3.1466272E-1,8.78583E-1,1.8444523E0,1.1173873E0,-2.0832068E-1,-2.633086E-1,-8.906864E-1,2.2647725E-1,1.5034221E0,-9.9647963E-1,4.656458E-2,-7.966649E-1,5.726089E-1,5.4487836E-2,-6.390805E-2,4.7787998E-2,1.3074245E-1,-1.4860707E-3,-1.0077517E0,2.2587791E-1,-7.679515E-2,1.9894085E0,2.6128111E-2,1.3593569E0,1.4773536E-1,1.4640135E0,1.9093866E-2,-7.345212E-2,3.2132137E-1,2.911657E-1,-5.413788E-1,-4.5388165E-1,-9.570927E-1,-5.9590034E-2,1.8524427E0,7.2280306E-1,1.8386731E0,-6.500286E-1,-1.0414678E0,-8.6531883E-1,7.378575E-2,1.2362853E0,-3.37761E-1,-8.290276E-1,-8.501251E-2,7.993921E-2,-5.6333087E-2,7.303113E-2,1.7271729E-1,-4.8020966E-2,3.294284E-1,1.7468837E0,5.855695E-1,5.0201286E-2,1.354873E-1,8.8440314E-2,-1.07057065E-1,-2.681922E-1,1.2258667E0,-4.8106987E-2,-7.1451724E-1,2.0276256E-2,-6.473042E-2,-5.810069E-1,-7.872968E-2,-3.6502835E-1,8.4419954E-1,7.162568E-2,1.8515964E-1,-5.3755857E-2,1.1150233E0,2.1789165E0,8.381917E-1,-1.8574424E-1,-9.429497E-1,-1.1059155E0,-9.5284754E-1,-9.238175E-1,1.3429098E-2,-1.782012E-2,1.66898E0,-6.308234E-1,5.59738E-2,-2.0007132E-2,-7.318508E-2,-2.8810348E-2,5.887095E-2,1.4756288E-1,5.9286263E-2,8.689147E-2,-2.4827803E-2,-5.7111647E-2,6.1057888E-2,-6.486173E-2,2.351057E-2,1.50317E-1,9.475085E-3,3.3693053E-2,-4.5866136E-2,-3.2053925E-2,-6.7148484E-2,-6.6751234E-2,5.8806078E-3,-5.3863477E-2,1.5819134E-2,-1.3338386E-4,1.089516E-1,2.707164E-2,1.2827998E-1,1.7744984E-1,8.599934E-2,1.7657671E-2,9.029673E-2,5.892644E-2,-4.8178285E-2,-8.105896E-2,-3.1097466E-2,-6.3916095E-2,-8.625162E-2,-7.84901E-2,4.927977E-3,-7.3869824E-2,-2.870927E-2,6.875714E-2,1.4185481E-1,2.5867961E-2,-7.743222E-2],"categories":[0,1,0,0,1,0,1,2,3,4,6,0,3,4,5,0,1,2,4,6,0,0,1,3,4,5,6,0,1,2,3,4,5,6,7,8,9,10,11,12,13,14,15,16,17,18,19,20,0,0,1,2,3,4,5,6,7,8,0,0,1,2,3,4,5,6,7,8,9,10,11,12,13,14,15,16,17,19,20,21,22,23,25],"categories_nodes":[2,4,15,24,36,48,49,50,53,55,74,88,93],"categories_segments":[0,2,3,5,11,15,20,21,27,48,49,58,59],"categories_sizes":[2,1,2,6,4,5,1,6,21,1,9,1,24],"default_left":[0,0,1,0,1,0,0,0,0,0,0,0,0,0,0,1,0,0,0,0,0,0,0,0,1,0,0,0,0,0,0,0,0,0,0,0,1,0,0,0,0,0,0,0,0,0,0,0,1,1,1,0,0,1,0,1,0,0,0,0,0,0,0,0,0,0,0,0,0,0,0,0,0,0,1,0,0,0,0,0,0,0,0,0,0,0,0,0,1,0,0,0,0,1,0,0,0,0,0,0,0,0,0,0,0,0,0,0,0,0,0,0,0,0,0,0,0,0,0,0,0,0,0,0,0,0,0,0,0,0,0,0,0,0,0,0,0,0,0,0,0,0,0,0,0],"id":6,"left_children":[1,3,5,7,9,11,13,15,17,19,21,23,25,27,29,31,33,35,37,39,41,43,45,47,49,51,53,55,-1,57,59,-1,-1,-1,-1,-1,61,63,-1,65,67,69,-1,71,-1,-1,73,75,77,79,81,83,85,87,89,91,93,95,-1,97,99,101,-1,-1,-1,-1,-1,-1,103,105,107,-1,-1,-1,109,111,113,115,117,-1,-1,119,-1,121,123,-1,-1,-1,125,127,129,131,133,135,137,139,-1,-1,141,143,-1,-1,-1,-1,-1,-1,-1,-1,-1,-1,-1,-1,-1,-1,-1,-1,-1,-1,-1,-1,-1,-1,-1,-1,-1,-1,-1,-1,-1,-1,-1,-1,-1,-1,-1,-1,-1,-1,-1,-1,-1,-1,-1,-1,-1],"loss_changes":[4.792015E2,2.559752E2,1.3109244E2,2.1055923E1,6.0668823E1,1.0987222E2,3.2733368E1,1.2307125E1,3.8061295E0,1.9717468E1,1.7955198E1,1.2926483E1,3.9656143E1,9.872864E0,5.059854E1,6.7339616E0,1.0167675E0,2.84412E0,5.3264847E0,2.7291166E1,3.3975525E0,4.823456E0,1.0419989E1,1.1607079E1,1.3463974E0,2.4428568E1,1.0968842E1,6.2814026E0,0E0,1.2360184E1,2.3256481E1,0E0,0E0,0E0,0E0,0E0,4.2964935E-2,7.439247E0,0E0,1.2781105E0,3.6406696E0,6.544407E0,0E0,1.8172493E0,0E0,0E0,5.711369E0,1.3636305E1,4.219288E0,3.0301552E0,7.819481E-1,1.2848821E1,1.8024349E0,9.5879545E0,9.143517E0,7.1647778E0,1.1934814E0,5.7850647E0,0E0,1.4418549E1,5.6948075E0,1.4068213E0,0E0,0E0,0E0,0E0,0E0,0E0,4.1553755E0,1.3396835E0,5.313531E0,0E0,0E0,0E0,7.0852175E0,5.823043E0,7.6242085E0,4.022798E0,1.3943653E0,0E0,0E0,2.0721297E0,0E0,6.830415E0,5.7520027E0,0E0,0E0,0E0,4.832514E0,7.69989E-1,1.7532911E0,9.832657E0,1.5917225E0,2.241211E-1,1.2567963E1,1.557106E0,0E0,0E0,7.478409E-1,5.3576984E0,0E0,0E0,0E0,0E0,0E0,0E0,0E0,0E0,0E0,0E0,0E0,0E0,0E0,0E0,0E0,0E0,0E0,0E0,0E0,0E0,0E0,0E0,0E0,0E0,0E0,0E0,0E0,0E0,0E0,0E0,0E0,0E0,0E0,0E0,0E0,0E0,0E0,0E0,0E0,0E0,0E0,0E0,0E0,0E0,0E0],"parents":[2147483647,0,0,1,1,2,2,3,3,4,4,5,5,6,6,7,7,8,8,9,9,10,10,11,11,12,12,13,13,14,14,15,15,16,16,17,17,18,18,19,19,20,20,21,21,22,22,23,23,24,24,25,25,26,26,27,27,29,29,30,30,36,36,37,37,39,39,40,40,41,41,43,43,46,46,47,47,48,48,49,49,50,50,51,51,52,52,53,53,54,54,55,55,56,56,57,57,59,59,60,60,61,61,68,68,69,69,70,70,74,74,75,75,76,76,77,77,78,78,81,81,83,83,84,84,88,88,89,89,90,90,91,91,92,92,93,93,94,94,95,95,98,98,99,99],"right_children":[2,4,6,8,10,12,14,16,18,20,22,24,26,28,30,32,34,36,38,40,42,44,46,48,50,52,54,56,-1,58,60,-1,-1,-1,-1,-1,62,64,-1,66,68,70,-1,72,-1,-1,74,76,78,80,82,84,86,88,90,92,94,96,-1,98,100,102,-1,-1,-1,-1,-1,-1,104,106,108,-1,-1,-1,110,112,114,116,118,-1,-1,120,-1,122,124,-1,-1,-1,126,128,130,132,134,136,138,140,-1,-1,142,144,-1,-1,-1,-1,-1,-1,-1,-1,-1,-1,-1,-1,-1,-1,-1,-1,-1,-1,-1,-1,-1,-1,-1,-1,-1,-1,-1,-1,-1,-1,-1,-1,-1,-1,-1,-1,-1,-1,-1,-1,-1,-1,-1,-1,-1],"split_conditions":[3E2,2.91E2,NaN,1.81E2,NaN,3.65E2,4.1E2,1.7413268E0,2.68E2,-2.2321314E-1,2.45E2,3.95E2,1.72E2,2.0161226E0,1.73E2,NaN,2.48E2,-7.42758E-1,2.41E2,1.38372E5,3.3E2,1.47354E5,3.51E2,1.72E2,NaN,-9.1490805E-2,-2.9720232E0,3.3E2,4.656458E-2,1.40677E5,1.18829E5,5.4487836E-2,-6.390805E-2,4.7787998E-2,1.3074245E-1,-1.4860707E-3,NaN,1.8171175E0,-7.679515E-2,1.78E2,2.73E2,1.83E2,1.4773536E-1,3.5E2,1.9093866E-2,-7.345212E-2,1.32861E5,1.48137E5,NaN,NaN,NaN,1.26733E5,7.5155044E-1,NaN,1.24423E5,NaN,1.36739E5,-1.2003415E0,7.378575E-2,-4.0788293E0,-1.0359765E0,2E1,-8.501251E-2,7.993921E-2,-5.6333087E-2,7.303113E-2,1.7271729E-1,-4.8020966E-2,1.47354E5,1.61998E5,2.4E1,5.0201286E-2,1.354873E-1,8.8440314E-2,NaN,1.67E2,5.5293417E-1,-5.102494E-1,3.34E2,2.0276256E-2,-6.473042E-2,1.437E5,-7.872968E-2,4.64E2,3.56E2,7.162568E-2,1.8515964E-1,-5.3755857E-2,NaN,3.7E2,1.33396E5,1.75E2,3.57E2,NaN,3.62E2,1.30156E5,1.3429098E-2,-1.782012E-2,4.54E2,-3.5955994E0,5.59738E-2,-2.0007132E-2,-7.318508E-2,-2.8810348E-2,5.887095E-2,1.4756288E-1,5.9286263E-2,8.689147E-2,-2.4827803E-2,-5.7111647E-2,6.1057888E-2,-6.486173E-2,2.351057E-2,1.50317E-1,9.475085E-3,3.3693053E-2,-4.5866136E-2,-3.2053925E-2,-6.7148484E-2,-6.6751234E-2,5.8806078E-3,-5.3863477E-2,1.5819134E-2,-1.3338386E-4,1.089516E-1,2.707164E-2,1.2827998E-1,1.7744984E-1,8.599934E-2,1.7657671E-2,9.029673E-2,5.892644E-2,-4.8178285E-2,-8.105896E-2,-3.1097466E-2,-6.3916095E-2,-8.625162E-2,-7.84901E-2,4.927977E-3,-7.3869824E-2,-2.870927E-2,6.875714E-2,1.4185481E-1,2.5867961E-2,-7.743222E-2],"split_indices":[10,9,34,1,34,9,9,11,9,11,10,10,1,12,1,34,9,12,10,3,9,3,9,1,19,12,11,10,0,3,3,0,0,0,0,0,19,12,0,1,10,1,0,9,0,0,3,3,35,28,35,3,12,20,3,34,3,11,0,11,12,16,0,0,0,0,0,0,3,3,16,0,0,0,20,1,12,12,10,0,0,3,0,9,10,0,0,0,29,10,3,1,9,20,9,3,0,0,9,11,0,0,0,0,0,0,0,0,0,0,0,0,0,0,0,0,0,0,0,0,0,0,0,0,0,0,0,0,0,0,0,0,0,0,0,0,0,0,0,0,0,0,0,0,0],"split_type":[0,0,1,0,1,0,0,0,0,0,0,0,0,0,0,1,0,0,0,0,0,0,0,0,1,0,0,0,0,0,0,0,0,0,0,0,1,0,0,0,0,0,0,0,0,0,0,0,1,1,1,0,0,1,0,1,0,0,0,0,0,0,0,0,0,0,0,0,0,0,0,0,0,0,1,0,0,0,0,0,0,0,0,0,0,0,0,0,1,0,0,0,0,1,0,0,0,0,0,0,0,0,0,0,0,0,0,0,0,0,0,0,0,0,0,0,0,0,0,0,0,0,0,0,0,0,0,0,0,0,0,0,0,0,0,0,0,0,0,0,0,0,0,0,0],"sum_hessian":[1.1135094E3,3.026446E2,8.108648E2,8.530254E1,2.1734206E2,2.3092549E2,5.7993933E2,1.7281233E1,6.802132E1,1.7664442E2,4.0697636E1,1.3365204E2,9.727346E1,4.4869714E2,1.3124217E2,1.0453454E1,6.827779E0,5.52905E1,1.2730812E1,2.7875614E1,1.487688E2,1.6237728E1,2.4459908E1,7.325893E1,6.0393105E1,5.128192E1,4.599154E1,4.4544415E2,3.2529964E0,9.444137E1,3.6800808E1,3.4471624E0,7.006292E0,3.3003116E0,3.5274673E0,3.1220808E0,5.216842E1,7.5013633E0,5.2294493E0,1.1524462E1,1.6351152E1,2.4235905E1,1.24532906E2,1.1114666E1,5.123063E0,9.789789E0,1.4670118E1,2.4452782E1,4.880615E1,9.00372E0,5.1389385E1,4.4428635E1,6.8532844E0,1.4765847E1,3.1225693E1,5.2970562E1,3.9247357E2,9.138328E1,3.0580912E0,2.1077164E1,1.5723644E1,2.2191948E1,2.9976473E1,4.0079093E0,3.493454E0,3.2729485E0,8.2515135E0,4.8501167E0,1.1501036E1,1.53105345E1,8.925369E0,3.8931408E0,7.221525E0,4.40909E0,1.0261028E1,1.5744056E1,8.708725E0,1.3012202E1,3.5793945E1,3.2846441E0,5.719076E0,9.520876E0,4.1868507E1,3.365197E1,1.0776667E1,3.6163607E0,3.236924E0,3.0184605E0,1.1747387E1,2.2422419E1,8.803274E0,2.112354E1,3.1847023E1,2.2058049E2,1.718931E2,8.662524E1,4.758036E0,4.9016223E0,1.617554E1,1.2659148E1,3.0644965E0,4.5786943E0,1.7613255E1,4.4645495E0,7.0364857E0,1.2115837E1,3.1946974E0,5.4158206E0,3.5095494E0,6.1172795E0,4.143749E0,7.6158376E0,8.128218E0,4.757166E0,3.9515588E0,7.0051064E0,6.007096E0,1.3889925E1,2.190402E1,6.384067E0,3.1368086E0,2.100818E1,1.2643786E1,4.774819E0,6.001848E0,5.659231E0,6.0881557E0,1.8811918E1,3.6104999E0,3.758117E0,5.0451574E0,6.460483E0,1.4663058E1,2.5454037E1,6.392986E0,1.7521673E1,2.030588E2,1.606572E2,1.1235908E1,8.006253E1,6.562711E0,4.211193E0,1.1964348E1,3.5943046E0,9.064843E0],"tree_param":{"num_deleted":"0","num_feature":"38","num_nodes":"145","size_leaf_vector":"1"}},{"base_weights":[-1.9715054E-1,-6.8290854E-1,7.203839E-1,8.21081E-1,-7.359339E-1,1.2381992E0,7.033963E-2,1.6774582E0,-7.034819E-2,-3.2966167E-1,-8.6630654E-1,1.4253933E0,-4.5809433E-1,1.2470741E0,-2.0111078E-1,3.7503254E-2,2.0457447E0,8.891377E-2,-9.081669E-1,-8.768083E-1,3.0837404E-2,1.6259279E0,1.0436751E0,-7.7092326E-1,5.565187E-2,-6.060066E-2,1.6412243E0,-9.9076524E-2,-8.859103E-1,1.7354357E-1,7.7851154E-2,-2.2884502E-1,1.0610183E0,7.443013E-3,-9.549284E-1,-9.8067844E-1,-7.314958E-1,1.690121E0,1.5153229E-2,1.1981392E0,-4.7694642E-2,-1.185742E-4,-7.52299E-2,1.464793E-1,1.4064214E-2,5.2358603E-1,-2.3307765E-1,-8.291319E-2,-4.231333E-3,7.70123E-1,-3.4073898E-1,-3.76503E-1,1.5668255E0,-2.211903E-2,-9.9874085E-1,-8.5421604E-1,-1.0666796E0,-8.5003203E-1,-1.2509678E-1,1.2219669E0,1.334395E-1,1.7187103E0,7.188518E-1,-5.0638564E-2,9.1655684E-1,-3.667389E-1,7.242794E-1,-2.1111734E-2,1.18325554E-1,-3.1965658E-2,7.3115945E-2,5.044261E-3,-5.4741837E-2,1.3666518E-1,3.7077744E-2,-5.1954824E-2,-8.200823E-2,8.19526E-3,-6.736018E-2,-8.273257E-2,-5.4353546E-2,-5.367774E-2,-7.576911E-2,8.663484E-2,-4.9724E-2,1.1469975E-1,5.6166597E-2,1.4435026E-1,3.427534E-2,-2.3233632E-3,1.0689881E-1,1.2181283E-1,-1.2859252E-3,3.1288084E-2,-3.4499418E-2,1.1259654E-1,-5.7638653E-2],"categories":[0,3,6,7,8,10,12,13,15,16,19,20,22,23,25,1,2,0],"categories_nodes":[35,59,65],"categories_segments":[0,15,17],"categories_sizes":[15,2,1],"default_left":[0,0,0,0,0,0,0,0,0,0,0,0,0,0,0,0,0,0,0,0,0,0,0,0,0,0,0,0,0,0,0,0,0,0,0,1,0,0,0,0,0,0,0,0,0,0,0,0,0,0,0,0,0,0,0,0,0,0,0,1,0,0,0,0,0,1,0,0,0,0,0,0,0,0,0,0,0,0,0,0,0,0,0,0,0,0,0,0,0,0,0,0,0,0,0,0,0],"id":7,"left_children":[1,3,5,7,9,11,13,15,-1,17,19,21,23,25,27,-1,29,31,33,35,-1,37,39,41,-1,-1,43,45,47,-1,-1,49,51,-1,53,55,57,59,-1,61,-1,-1,-1,-1,-1,63,65,-1,-1,67,69,71,73,-1,75,77,79,81,83,85,-1,87,89,-1,91,93,95,-1,-1,-1,-1,-1,-1,-1,-1,-1,-1,-1,-1,-1,-1,-1,-1,-1,-1,-1,-1,-1,-1,-1,-1,-1,-1,-1,-1,-1,-1],"loss_changes":[4.840776E2,5.7221375E1,1.2649812E2,3.8245266E1,3.606482E1,6.710156E1,5.3851585E1,6.381256E0,0E0,4.084416E1,7.266327E0,1.274823E1,8.544035E0,2.6670433E1,9.499614E0,0E0,5.2490616E-1,3.0694279E1,3.4189377E0,7.055847E0,0E0,1.0844177E1,1.818798E1,2.8382034E0,0E0,0E0,1.0183487E1,1.0179952E1,2.81293E0,0E0,0E0,8.659082E0,1.83773E1,0E0,1.6885147E0,2.3231812E0,1.5607391E1,6.369629E-1,0E0,1.4327415E1,0E0,0E0,0E0,0E0,0E0,1.0683056E1,1.3047512E1,0E0,0E0,6.792312E0,7.1359687E0,1.1182597E0,3.4173393E0,0E0,7.153015E-1,3.0503464E0,1.4572144E-2,3.0953064E0,2.4997156E1,8.814869E-1,0E0,5.2584763E0,1.7351656E1,0E0,1.0496158E1,5.88595E0,1.4925012E1,0E0,0E0,0E0,0E0,0E0,0E0,0E0,0E0,0E0,0E0,0E0,0E0,0E0,0E0,0E0,0E0,0E0,0E0,0E0,0E0,0E0,0E0,0E0,0E0,0E0,0E0,0E0,0E0,0E0,0E0],"parents":[2147483647,0,0,1,1,2,2,3,3,4,4,5,5,6,6,7,7,9,9,10,10,11,11,12,12,13,13,14,14,16,16,17,17,18,18,19,19,21,21,22,22,23,23,26,26,27,27,28,28,31,31,32,32,34,34,35,35,36,36,37,37,39,39,45,45,46,46,49,49,50,50,51,51,52,52,54,54,55,55,56,56,57,57,58,58,59,59,61,61,62,62,64,64,65,65,66,66],"right_children":[2,4,6,8,10,12,14,16,-1,18,20,22,24,26,28,-1,30,32,34,36,-1,38,40,42,-1,-1,44,46,48,-1,-1,50,52,-1,54,56,58,60,-1,62,-1,-1,-1,-1,-1,64,66,-1,-1,68,70,72,74,-1,76,78,80,82,84,86,-1,88,90,-1,92,94,96,-1,-1,-1,-1,-1,-1,-1,-1,-1,-1,-1,-1,-1,-1,-1,-1,-1,-1,-1,-1,-1,-1,-1,-1,-1,-1,-1,-1,-1,-1],"split_conditions":[5.84E2,-2.361247E0,3E2,4.21E2,3.35E2,1.3724582E0,9.1048E4,2.6E1,-7.034819E-2,1.0564175E0,1.5681618E0,2.59E2,1.64229E5,2.7E1,4.24E2,3.7503254E-2,3.8E2,1.2800974E0,-6.5084803E-1,4.72E2,3.0837404E-2,5.332278E0,2.548365E0,3.0150735E0,5.565187E-2,-6.060066E-2,4.06E2,1.05968E5,3.5E1,1.7354357E-1,7.7851154E-2,-1.7086263E0,2.3E1,7.443013E-3,-1.524411E0,NaN,1.437E5,-1.1781498E0,1.5153229E-2,1.29945E5,-4.7694642E-2,-1.185742E-4,-7.52299E-2,1.464793E-1,1.4064214E-2,2.6E1,1.46995E5,-8.291319E-2,-4.231333E-3,2.6E1,3E1,2.41E2,3.5647133E-1,-2.211903E-2,2.25E2,-2.105601E0,1.92156E5,-2.2553926E0,7.557585E-2,NaN,1.334395E-1,2.031847E0,-8.1510216E-2,-5.0638564E-2,3.76E2,NaN,1.2663263E0,-2.1111734E-2,1.18325554E-1,-3.1965658E-2,7.3115945E-2,5.044261E-3,-5.4741837E-2,1.3666518E-1,3.7077744E-2,-5.1954824E-2,-8.200823E-2,8.19526E-3,-6.736018E-2,-8.273257E-2,-5.4353546E-2,-5.367774E-2,-7.576911E-2,8.663484E-2,-4.9724E-2,1.1469975E-1,5.6166597E-2,1.4435026E-1,3.427534E-2,-2.3233632E-3,1.0689881E-1,1.2181283E-1,-1.2859252E-3,3.1288084E-2,-3.4499418E-2,1.1259654E-1,-5.7638653E-2],"split_indices":[8,7,10,10,10,7,3,16,0,7,4,10,3,16,10,0,10,4,4,8,0,11,11,11,0,0,10,3,16,0,0,7,16,0,5,20,3,5,0,3,0,0,0,0,0,16,3,0,0,16,16,10,7,0,10,7,3,11,7,33,0,11,11,0,10,21,7,0,0,0,0,0,0,0,0,0,0,0,0,0,0,0,0,0,0,0,0,0,0,0,0,0,0,0,0,0,0],"split_type":[0,0,0,0,0,0,0,0,0,0,0,0,0,0,0,0,0,0,0,0,0,0,0,0,0,0,0,0,0,0,0,0,0,0,0,1,0,0,0,0,0,0,0,0,0,0,0,0,0,0,0,0,0,0,0,0,0,0,0,1,0,0,0,0,0,1,0,0,0,0,0,0,0,0,0,0,0,0,0,0,0,0,0,0,0,0,0,0,0,0,0,0,0,0,0,0,0],"sum_hessian":[1.0840033E3,7.0893634E2,3.75067E2,2.3650093E1,6.8528625E2,2.0826303E2,1.6680396E2,1.5869508E1,7.7805862E0,1.6734085E2,5.179454E2,1.8770824E2,2.05548E1,3.059235E1,1.3621161E2,4.3058624E0,1.1563645E1,9.758202E1,6.9758835E1,5.139992E2,3.9461656E0,1.2092247E2,6.678577E1,1.6535263E1,4.019537E0,4.7954683E0,2.579688E1,1.19544334E2,1.6667273E1,8.553945E0,3.0097005E0,7.411885E1,2.3463173E1,3.052866E0,6.670596E1,2.963896E2,2.1760963E2,1.1554586E2,5.376613E0,6.1375633E1,5.4101315E0,3.768369E0,1.2766893E1,2.1507395E1,4.2894864E0,2.0655796E1,9.888854E1,1.3244531E1,3.4227421E0,6.873241E0,6.7245605E1,6.1735044E0,1.7289667E1,4.5831795E0,6.2122787E1,1.24398155E2,1.7199144E2,1.8169157E2,3.5918056E1,1.3735683E1,1.0181017E2,2.8181131E1,3.3194504E1,4.9769754E0,1.5678821E1,8.7314995E1,1.1573542E1,3.1964707E0,3.6767702E0,6.4144485E1,3.1011248E0,3.0209935E0,3.1525106E0,1.3875983E1,3.413685E0,1.3175324E1,4.8947464E1,3.0122688E0,1.2138589E2,1.6418565E2,7.80579E0,9.0172356E1,9.151922E1,1.0230807E1,2.5687248E1,7.48183E0,6.253853E0,2.4528753E1,3.652378E0,1.6194426E1,1.7000076E1,8.704112E0,6.974708E0,8.098601E0,7.921639E1,7.6964297E0,3.8771124E0],"tree_param":{"num_deleted":"0","num_feature":"38","num_nodes":"97","size_leaf_vector":"1"}},{"base_weights":[-1.762929E-1,5.761029E-1,-6.5011907E-1,9.1605926E-1,-7.1887255E-1,7.7658015E-1,-7.107684E-1,-7.008273E-1,1.1152357E0,-8.4122753E-1,6.546481E-1,-6.225902E-1,1.5798503E0,-9.593705E-1,-4.449013E-1,3.452272E-2,-8.294314E-1,1.7039274E0,6.7931753E-1,-9.0638745E-1,1.7397497E-2,9.355868E-2,-5.1947804E-3,1.8998466E-2,-7.845642E-2,7.249602E-1,2.064623E0,-8.352316E-2,-9.885918E-1,-7.2691864E-1,2.9204506E-1,-1.0169821E0,-2.1017699E-1,1.7757965E0,7.096029E-1,1.5389645E0,1.9412524E-1,-9.439796E-1,-2.3205627E-2,1.0913285E-1,-1.194733E-2,7.591959E-2,1.8566406E-1,5.7068087E-2,-7.435907E-2,-9.9852717E-1,-4.3778673E-1,-7.6299524E-1,4.030643E-2,-5.223232E-1,1.1532291E0,-6.891023E-1,-8.548776E-2,5.1468883E-2,-6.376995E-2,3.5190757E-2,1.3902396E-1,1.2433102E-1,-4.3738723E-2,1.6161186E0,1.5672952E-2,-6.5382145E-2,1.2035954E0,-4.048166E-1,-9.964738E-1,-9.160545E-1,-1.0639377E0,-1.0057467E-2,-4.8486516E-2,-3.6011398E-1,-8.601055E-1,1.3721046E-1,-7.4616647E-1,1.7538235E0,-7.8838253E-1,-2.7728759E-2,-6.987892E-2,5.948002E-2,1.2687239E-1,-2.3736767E-2,7.077868E-2,1.05233625E-1,1.6792448E-2,2.0795218E-3,-5.4410055E-2,-7.877583E-2,-4.8629176E-2,-2.8582107E-2,-7.314932E-2,-3.7504826E-2,-8.3212286E-2,1.3513084E-1,-6.2387902E-2,-7.424792E-2,-3.477277E-2,-3.0877756E-2,-7.81109E-2,4.2336646E-2,1.9299933E-1,-3.0528558E-2,-6.901241E-2],"categories":[1,2,3],"categories_nodes":[31],"categories_segments":[0],"categories_sizes":[3],"default_left":[0,0,0,0,0,0,0,0,0,0,0,0,0,0,0,0,0,0,0,0,0,0,0,0,0,0,0,0,0,0,0,1,0,0,0,0,0,0,0,0,0,0,0,0,0,0,0,0,0,0,0,0,0,0,0,0,0,0,0,0,0,0,0,0,0,0,0,0,0,0,0,0,0,0,0,0,0,0,0,0,0,0,0,0,0,0,0,0,0,0,0,0,0,0,0,0,0,0,0,0,0],"id":8,"left_children":[1,3,5,7,9,11,13,15,17,19,21,23,25,27,29,-1,31,33,35,37,-1,-1,-1,-1,-1,39,41,43,45,47,49,51,53,55,57,59,61,63,-1,-1,-1,-1,-1,-1,-1,65,67,69,-1,71,73,75,-1,-1,-1,-1,-1,-1,-1,77,-1,79,81,83,85,87,89,-1,-1,91,93,-1,95,97,99,-1,-1,-1,-1,-1,-1,-1,-1,-1,-1,-1,-1,-1,-1,-1,-1,-1,-1,-1,-1,-1,-1,-1,-1,-1,-1],"loss_changes":[3.761838E2,1.8021527E2,5.6560394E1,1.0496225E2,1.4897579E1,3.1185411E1,4.0645477E1,5.717125E0,7.2852844E1,5.6920967E0,3.1671064E0,3.9241166E0,5.6952057E0,8.114136E0,6.300732E1,0E0,3.5978432E0,7.460846E0,6.950843E1,1.4046669E0,0E0,0E0,0E0,0E0,0E0,5.035302E0,1.6456757E0,9.114211E0,1.2584229E0,1.0290024E1,5.9749905E1,3.453064E-2,5.4311614E0,4.8044434E0,1.2478973E1,5.8717957E0,2.8404331E1,1.5680008E0,0E0,0E0,0E0,0E0,0E0,0E0,0E0,6.629944E-1,3.5109234E-1,8.027168E0,0E0,2.4127893E1,4.954605E1,2.7952242E-1,0E0,0E0,0E0,0E0,0E0,0E0,0E0,5.765381E-1,0E0,2.1289497E1,3.3919487E0,1.055261E0,5.7258606E-2,2.5805664E0,1.4940186E0,0E0,0E0,4.296116E1,7.1009903E0,0E0,3.4165916E0,2.7848732E1,9.760046E-2,0E0,0E0,0E0,0E0,0E0,0E0,0E0,0E0,0E0,0E0,0E0,0E0,0E0,0E0,0E0,0E0,0E0,0E0,0E0,0E0,0E0,0E0,0E0,0E0,0E0,0E0],"parents":[2147483647,0,0,1,1,2,2,3,3,4,4,5,5,6,6,7,7,8,8,9,9,10,10,11,11,12,12,13,13,14,14,16,16,17,17,18,18,19,19,25,25,26,26,27,27,28,28,29,29,30,30,31,31,32,32,33,33,34,34,35,35,36,36,37,37,45,45,46,46,47,47,49,49,50,50,51,51,59,59,61,61,62,62,63,63,64,64,65,65,66,66,69,69,70,70,72,72,73,73,74,74],"right_children":[2,4,6,8,10,12,14,16,18,20,22,24,26,28,30,-1,32,34,36,38,-1,-1,-1,-1,-1,40,42,44,46,48,50,52,54,56,58,60,62,64,-1,-1,-1,-1,-1,-1,-1,66,68,70,-1,72,74,76,-1,-1,-1,-1,-1,-1,-1,78,-1,80,82,84,86,88,90,-1,-1,92,94,-1,96,98,100,-1,-1,-1,-1,-1,-1,-1,-1,-1,-1,-1,-1,-1,-1,-1,-1,-1,-1,-1,-1,-1,-1,-1,-1,-1,-1],"split_conditions":[3.28E2,1.2663263E0,-2.5269153E0,4.8E1,1.9695882E0,5.3E1,5.7E1,7.9108E4,1.32338E5,6.4E1,2.59E2,8.234E4,-1.9953661E0,9.1048E4,-2.7374175E-1,3.452272E-2,4.5E1,7.2E1,2.54E2,1.86768E5,1.7397497E-2,9.355868E-2,-5.1947804E-3,1.8998466E-2,-7.845642E-2,7.6452E4,6.1E1,4.05E2,3.954494E0,1.2847984E-1,6.2E1,NaN,4.8711073E-1,5E1,-1.8844645E0,7.1E1,2.0948515E0,1.5088884E0,-2.3205627E-2,1.0913285E-1,-1.194733E-2,7.591959E-2,1.8566406E-1,5.7068087E-2,-7.435907E-2,-3.5337326E-1,1.80931E5,1.05034E5,4.030643E-2,1.2272E5,1.2324471E0,2.5770384E-1,-8.548776E-2,5.1468883E-2,-6.376995E-2,3.5190757E-2,1.3902396E-1,1.2433102E-1,-4.3738723E-2,-1.5475188E0,1.5672952E-2,-3.676254E-2,4.0646172E-1,4.525041E-3,4.1078777E0,3.5E2,1.11525E5,-1.0057467E-2,-4.8486516E-2,3.76E2,-9.0605736E-1,1.3721046E-1,1.52521E5,4.4017655E-1,-6.813782E-1,-2.7728759E-2,-6.987892E-2,5.948002E-2,1.2687239E-1,-2.3736767E-2,7.077868E-2,1.05233625E-1,1.6792448E-2,2.0795218E-3,-5.4410055E-2,-7.877583E-2,-4.8629176E-2,-2.8582107E-2,-7.314932E-2,-3.7504826E-2,-8.3212286E-2,1.3513084E-1,-6.2387902E-2,-7.424792E-2,-3.477277E-2,-3.0877756E-2,-7.81109E-2,4.2336646E-2,1.9299933E-1,-3.0528558E-2,-6.901241E-2],"split_indices":[10,7,7,0,13,0,0,3,3,0,10,3,13,3,13,0,0,0,10,3,0,0,0,0,0,3,0,10,7,7,0,37,13,0,7,0,13,7,0,0,0,0,0,0,0,7,3,3,0,3,7,7,0,0,0,0,0,0,0,7,0,7,7,14,7,10,3,0,0,10,13,0,3,13,14,0,0,0,0,0,0,0,0,0,0,0,0,0,0,0,0,0,0,0,0,0,0,0,0,0,0],"split_type":[0,0,0,0,0,0,0,0,0,0,0,0,0,0,0,0,0,0,0,0,0,0,0,0,0,0,0,0,0,0,0,1,0,0,0,0,0,0,0,0,0,0,0,0,0,0,0,0,0,0,0,0,0,0,0,0,0,0,0,0,0,0,0,0,0,0,0,0,0,0,0,0,0,0,0,0,0,0,0,0,0,0,0,0,0,0,0,0,0,0,0,0,0,0,0,0,0,0,0,0,0],"sum_hessian":[1.0531493E3,4.068655E2,6.462838E2,3.224965E2,8.4369026E1,2.5872047E1,6.2041174E2,3.5093525E1,2.8740295E2,7.782391E1,6.5451155E0,9.5180435E0,1.6354004E1,3.1926804E2,3.0114368E2,3.2750592E0,3.1818464E1,1.2103745E2,1.6636551E2,7.349231E1,4.3315997E0,3.2835863E0,3.261529E0,3.1218555E0,6.396188E0,6.8209004E0,9.533103E0,1.0432549E1,3.088355E2,2.1780635E2,8.333734E1,2.392895E1,7.8895154E0,1.1214569E2,8.891758E0,5.9237934E1,1.0712758E2,6.865325E1,4.8390627E0,3.4599166E0,3.360984E0,3.3216467E0,6.2114563E0,5.4771724E0,4.9553776E0,3.02565E2,6.270496E0,2.1208948E2,5.7168736E0,4.3035152E1,4.030219E1,7.3646846E0,1.6564264E1,3.2297723E0,4.659743E0,3.4994636E0,1.0864623E2,5.035883E0,3.855875E0,5.5800793E1,3.4371414E0,8.596384E1,2.1163738E1,6.8641167E0,6.178913E1,1.4046475E2,1.6210025E2,3.0859854E0,3.1845105E0,4.2107277E1,1.699822E2,3.180814E0,3.985434E1,3.0854692E1,9.447496E0,4.042582E0,3.3221023E0,3.4017947E0,5.2399E1,6.948388E1,1.647996E1,1.7723E1,3.440739E0,3.2178442E0,3.6462727E0,5.519564E1,6.593492E0,9.939297E0,1.3052547E2,6.7305584E0,1.5536969E2,6.907125E0,3.5200153E1,1.330789E2,3.6903294E1,1.8742935E1,2.1111404E1,1.2662402E1,1.8192291E1,3.1222904E0,6.3252063E0],"tree_param":{"num_deleted":"0","num_feature":"38","num_nodes":"101","size_leaf_vector":"1"}},{"base_weights":[-1.6683562E-1,5.39553E-1,-6.226434E-1,8.5552436E-1,-6.96178E-1,-3.718546E-2,-8.51949E-1,1.1645995E0,-1.5617737E-1,-8.179759E-1,6.132871E-1,-6.503366E-1,3.7329394E-1,7.5602986E-2,-9.013812E-1,-2.6539326E-1,1.310815E0,1.0000049E0,-4.2456907E-1,-2.4367139E-1,-9.515218E-1,-1.7251793E-2,9.6402556E-2,5.4182682E-2,-7.529579E-1,-9.314218E-2,8.1456053E-1,8.995251E-1,-7.546912E-1,-7.043252E-1,-1.0356033E0,6.369088E-2,-6.083295E-1,7.477172E-1,1.5650998E0,1.1154688E-2,1.0791814E-1,6.3006416E-2,-5.5486906E-1,-5.083247E-1,3.709833E-2,-1.0384315E0,-6.1601615E-1,-3.3636698E-1,-8.910699E-1,6.421598E-1,-5.7202536E-1,1.0670576E0,-6.82078E-2,1.4776529E0,4.115579E-3,-7.672012E-2,-2.1094562E-2,-9.366051E-1,-4.346691E-1,-7.4884653E-1,-1.0540599E0,-8.1041765E-1,2.0066665E-2,1.6553855E0,1.3205063E-1,1.6184831E0,8.845588E-1,-8.935985E-1,-3.6315954E-1,2.3425786E-2,-8.2405835E-1,-4.5667533E-2,-8.219407E-2,1.3706049E-2,-8.4793586E-1,1.6956838E-2,-5.161978E-1,-5.20896E-1,-1.0200834E0,1.4156828E0,-3.6884877E-1,-8.6158656E-2,-7.667736E-1,1.8994342E0,5.5018055E-1,1.5817197E-2,1.7932075E-1,-2.1372555E-2,-9.561194E-1,-8.002047E-1,6.9903517E-1,3.0835452E-2,-7.658994E-2,-8.245738E-2,-7.8266597E-1,-2.8080605E-2,-8.1572816E-2,4.304056E-2,1.3517155E-1,-8.171955E-3,9.055047E-2,1.2713094E-1,6.178323E-2,1.344101E-1,-2.5098887E-3,-7.569714E-2,-3.545931E-2,-4.2509966E-2,5.4456443E-2,-2.991151E-2,-7.514714E-2,-7.328706E-2,-3.1576652E-2,5.4019364E-3,-5.315142E-2,1.9578673E-2,-5.9429377E-2,-5.478769E-2,-8.38479E-2,5.0628133E-2,1.22962475E-1,1.1340924E-2,-6.0104858E-2,3.906085E-2,-7.18106E-2,-6.9356404E-2,-2.4551954E-2,1.7894773E-1,-1.578522E-2,1.6856937E-2,1.3159864E-1,-2.6866136E-2,-7.459254E-2,-6.868036E-2,6.001964E-3,1.22705355E-1,-4.177831E-2,-7.868858E-2,3.7115235E-2],"categories":[0,1,0,0,1,3,0,0,0,1,3,0,1,3,4,6,0,2,3],"categories_nodes":[2,3,9,14,17,43,44,74],"categories_segments":[0,2,3,6,7,8,11,16],"categories_sizes":[2,1,3,1,1,3,5,3],"default_left":[0,0,1,1,0,0,0,0,0,1,0,0,0,0,1,0,0,1,0,0,0,0,0,0,0,0,0,0,0,0,0,0,0,0,0,0,0,0,0,0,0,0,0,1,1,0,0,0,0,0,0,0,0,0,0,0,0,0,0,0,0,0,0,0,0,0,0,0,0,0,0,0,0,0,1,0,0,0,0,0,0,0,0,0,0,0,0,0,0,0,0,0,0,0,0,0,0,0,0,0,0,0,0,0,0,0,0,0,0,0,0,0,0,0,0,0,0,0,0,0,0,0,0,0,0,0,0,0,0,0,0,0,0,0,0],"id":9,"left_children":[1,3,5,7,9,11,13,15,17,19,21,23,25,27,29,31,33,35,37,39,41,-1,-1,-1,43,45,47,49,51,53,55,-1,57,59,61,-1,-1,-1,63,65,-1,67,69,71,73,75,77,79,-1,81,-1,-1,-1,83,85,87,89,91,-1,93,95,97,99,101,103,-1,105,-1,-1,-1,107,-1,109,111,113,115,117,119,121,123,125,-1,-1,-1,127,129,131,-1,-1,-1,133,-1,-1,-1,-1,-1,-1,-1,-1,-1,-1,-1,-1,-1,-1,-1,-1,-1,-1,-1,-1,-1,-1,-1,-1,-1,-1,-1,-1,-1,-1,-1,-1,-1,-1,-1,-1,-1,-1,-1,-1,-1,-1,-1,-1],"loss_changes":[3.295838E2,1.5739743E2,8.3470215E1,1.00324844E2,1.3631836E1,4.456426E1,2.0558716E1,5.16651E1,2.3954126E1,5.57777E0,4.376075E0,1.0418064E1,2.1917294E1,1.6778463E1,1.0494629E1,9.377567E0,3.0736969E1,4.877472E0,1.0565543E1,3.2569246E0,1.142292E0,0E0,0E0,0E0,3.5250053E0,1.8848536E1,2.446048E1,5.9200125E0,1.1723213E0,1.0558014E1,5.353699E-1,0E0,3.474523E0,3.9590797E1,4.1121216E0,0E0,0E0,0E0,3.3736E0,3.323543E0,0E0,6.626129E-2,2.9225345E0,1.9348443E0,1.8239174E0,1.7079144E1,2.9914856E0,1.9622684E1,0E0,7.4591513E0,0E0,0E0,0E0,9.295502E-1,3.4905243E1,5.758072E0,5.2456665E-1,1.33428E0,0E0,2.4008484E0,1.1026937E1,3.2228394E0,1.0661638E1,3.4855556E-1,8.212902E0,0E0,2.1969652E-1,0E0,0E0,0E0,1.6297913E-1,0E0,1.5072405E0,3.1187024E0,1.8314362E-2,6.767559E-1,2.2556248E0,5.733698E0,1.1238308E0,1.6961891E1,1.158321E1,0E0,0E0,0E0,5.851517E-1,5.381874E0,2.4139103E1,0E0,0E0,0E0,6.9394026E0,0E0,0E0,0E0,0E0,0E0,0E0,0E0,0E0,0E0,0E0,0E0,0E0,0E0,0E0,0E0,0E0,0E0,0E0,0E0,0E0,0E0,0E0,0E0,0E0,0E0,0E0,0E0,0E0,0E0,0E0,0E0,0E0,0E0,0E0,0E0,0E0,0E0,0E0,0E0,0E0,0E0,0E0,0E0,0E0],"parents":[2147483647,0,0,1,1,2,2,3,3,4,4,5,5,6,6,7,7,8,8,9,9,10,10,11,11,12,12,13,13,14,14,15,15,16,16,17,17,18,18,19,19,20,20,24,24,25,25,26,26,27,27,28,28,29,29,30,30,32,32,33,33,34,34,38,38,39,39,41,41,42,42,43,43,44,44,45,45,46,46,47,47,49,49,53,53,54,54,55,55,56,56,57,57,59,59,60,60,61,61,62,62,63,63,64,64,66,66,70,70,72,72,73,73,74,74,75,75,76,76,77,77,78,78,79,79,80,80,84,84,85,85,86,86,90,90],"right_children":[2,4,6,8,10,12,14,16,18,20,22,24,26,28,30,32,34,36,38,40,42,-1,-1,-1,44,46,48,50,52,54,56,-1,58,60,62,-1,-1,-1,64,66,-1,68,70,72,74,76,78,80,-1,82,-1,-1,-1,84,86,88,90,92,-1,94,96,98,100,102,104,-1,106,-1,-1,-1,108,-1,110,112,114,116,118,120,122,124,126,-1,-1,-1,128,130,132,-1,-1,-1,134,-1,-1,-1,-1,-1,-1,-1,-1,-1,-1,-1,-1,-1,-1,-1,-1,-1,-1,-1,-1,-1,-1,-1,-1,-1,-1,-1,-1,-1,-1,-1,-1,-1,-1,-1,-1,-1,-1,-1,-1,-1,-1,-1,-1],"split_conditions":[3.28E2,1.2663263E0,NaN,NaN,1.9695882E0,5.5E1,-2.3263528E0,5E1,2.28E2,NaN,3.5559303E-1,9.1048E4,-9.915907E-1,4.02E2,NaN,8.9345E4,-1.1644858E-3,NaN,-1.940297E0,5.8E1,5.7E1,-1.7251793E-2,9.6402556E-2,5.4182682E-2,3.78E2,1.06913E5,1.5088884E0,-1.6008179E0,5.6E1,5.8E1,1.01892E5,6.369088E-2,1.37277E5,1.32861E5,3.01E2,1.1154688E-2,1.0791814E-1,6.3006416E-2,5.4E1,-6.610507E-1,3.709833E-2,1.5088884E0,2.1597607E0,NaN,NaN,4.11E2,3.7E2,-2.9184859E0,-6.82078E-2,-9.2151684E-1,4.115579E-3,-7.672012E-2,-2.1094562E-2,9.2E4,2.0644372E-2,3.86E2,7.1E1,1.15847E5,2.0066665E-2,-2.3379476E0,-3.676254E-2,6.9E1,1.36414E5,3.12E2,7.261388E-1,2.3425786E-2,2.54E2,-4.5667533E-2,-8.219407E-2,1.3706049E-2,5.314838E-1,1.6956838E-2,4.2E1,-1.3611944E0,NaN,-2.7609222E0,6.3E1,7.1E1,-1.4147124E0,3.1821516E0,9.1004956E-1,1.5817197E-2,1.7932075E-1,-2.1372555E-2,3.3E1,-1.0167754E0,1.71937E5,3.0835452E-2,-7.658994E-2,-8.245738E-2,-1.0688549E0,-2.8080605E-2,-8.1572816E-2,4.304056E-2,1.3517155E-1,-8.171955E-3,9.055047E-2,1.2713094E-1,6.178323E-2,1.344101E-1,-2.5098887E-3,-7.569714E-2,-3.545931E-2,-4.2509966E-2,5.4456443E-2,-2.991151E-2,-7.514714E-2,-7.328706E-2,-3.1576652E-2,5.4019364E-3,-5.315142E-2,1.9578673E-2,-5.9429377E-2,-5.478769E-2,-8.38479E-2,5.0628133E-2,1.22962475E-1,1.1340924E-2,-6.0104858E-2,3.906085E-2,-7.18106E-2,-6.9356404E-2,-2.4551954E-2,1.7894773E-1,-1.578522E-2,1.6856937E-2,1.3159864E-1,-2.6866136E-2,-7.459254E-2,-6.868036E-2,6.001964E-3,1.22705355E-1,-4.177831E-2,-7.868858E-2,3.7115235E-2],"split_indices":[10,7,34,34,6,0,7,0,10,34,11,3,6,10,34,3,11,28,7,0,0,0,0,0,10,3,7,11,0,0,3,0,3,3,10,0,0,0,0,5,0,7,7,32,19,10,10,11,0,6,0,0,0,3,6,10,0,3,0,11,7,0,3,10,11,0,10,0,0,0,5,0,0,7,32,11,0,0,6,6,6,0,0,0,0,11,3,0,0,0,6,0,0,0,0,0,0,0,0,0,0,0,0,0,0,0,0,0,0,0,0,0,0,0,0,0,0,0,0,0,0,0,0,0,0,0,0,0,0,0,0,0,0,0,0],"split_type":[0,0,1,1,0,0,0,0,0,1,0,0,0,0,1,0,0,1,0,0,0,0,0,0,0,0,0,0,0,0,0,0,0,0,0,0,0,0,0,0,0,0,0,1,1,0,0,0,0,0,0,0,0,0,0,0,0,0,0,0,0,0,0,0,0,0,0,0,0,0,0,0,0,0,1,0,0,0,0,0,0,0,0,0,0,0,0,0,0,0,0,0,0,0,0,0,0,0,0,0,0,0,0,0,0,0,0,0,0,0,0,0,0,0,0,0,0,0,0,0,0,0,0,0,0,0,0,0,0,0,0,0,0,0,0],"sum_hessian":[1.0215805E3,4.0058685E2,6.2099365E2,3.1926083E2,8.132601E1,1.7509843E2,4.4589523E2,2.444348E2,7.4826035E1,7.474871E1,6.5773005E0,6.998076E1,1.05117676E2,2.2534065E1,4.2336118E2,2.2599134E1,2.2183566E2,1.3583763E1,6.1242275E1,1.4635303E1,6.0113407E1,3.1410964E0,3.436204E0,4.5056233E0,6.5475136E1,5.1484966E1,5.3632706E1,1.1268582E1,1.1265483E1,1.7406206E2,2.492991E2,5.045916E0,1.7553217E1,7.023818E1,1.5159747E2,4.827078E0,8.756684E0,5.2935247E0,5.594875E1,1.0952943E1,3.6823595E0,4.608134E1,1.4032068E1,1.715762E1,4.8317513E1,2.0171558E1,3.1313408E1,4.7038067E1,6.59464E0,6.249844E0,5.018738E0,6.725556E0,4.539927E0,9.218296E1,8.1879105E1,1.758939E1,2.3170972E2,1.430045E1,3.2527668E0,2.7704733E1,4.253345E1,1.392928E2,1.2304682E1,1.8897593E1,3.7051155E1,3.0702596E0,7.8826833E0,4.592781E0,4.148856E1,3.2213008E0,1.0810767E1,4.128095E0,1.3029524E1,1.3789457E1,3.4528057E1,1.1201228E1,8.970331E0,9.372607E0,2.19408E1,1.6994831E1,3.0043236E1,3.0254967E0,3.2243476E0,3.0964174E0,8.908654E1,6.2138283E1,1.9740824E1,3.0331962E0,1.4556193E1,2.1185654E2,1.985317E1,6.0883484E0,8.212103E0,3.0463312E0,2.4658401E1,3.5383476E1,7.1499753E0,1.3176451E2,7.528284E0,5.850991E0,6.4536915E0,1.4456735E1,4.4408593E0,3.185523E1,5.195925E0,3.013493E0,4.86919E0,7.7067113E0,3.1040564E0,3.1620994E0,9.867424E0,3.40241E0,1.0387048E1,8.797089E0,2.5730967E1,3.136209E0,8.065019E0,4.2832837E0,4.687047E0,5.748068E0,3.6245396E0,1.5975928E1,5.964872E0,1.3994393E1,3.0004382E0,2.4340633E1,5.7026033E0,3.01918E0,8.606736E1,5.601261E1,6.125671E0,1.1278915E1,8.461907E0,1.6807493E1,3.0456767E0],"tree_param":{"num_deleted":"0","num_feature":"38","num_nodes":"135","size_leaf_vector":"1"}},{"base_weights":[-1.6625044E-1,-6.1466825E-1,6.203617E-1,-8.566331E-2,-8.380363E-1,9.435097E-1,-3.2681334E-1,4.8372084E-1,-4.3487936E-1,-1.0113419E0,-6.5369785E-1,-6.420371E-1,1.0547755E0,6.7540264E-1,-5.580621E-1,1.2251866E0,-1.8796604E-2,-7.700708E-1,-1.4671107E-1,-1.0414776E0,-4.7176418E-1,-3.4859443E-1,-8.753949E-1,-8.866683E-1,2.9657278E-2,1.112946E0,-6.172538E-1,9.261216E-1,-1.6853306E-2,8.776911E-2,-7.150696E-1,6.7115005E-4,1.444822E0,8.270675E-1,-3.1262606E-1,-3.9754444E-1,-8.870254E-1,-3.9507502E-1,1.1565568E0,-8.060161E-2,-6.738644E-1,3.4141757E-2,-7.81334E-1,-5.4217595E-1,3.455224E-1,-9.123624E-1,-4.365454E-3,-7.693024E-2,-2.4468757E-2,1.343862E0,7.298167E-1,3.6499633E-3,-7.3938936E-2,9.642385E-2,-3.44729E-4,-7.0476484E-1,8.6273754E-1,-8.330016E-1,1.6394624E-2,5.0371233E-2,1.5979277E0,-2.1351099E-2,1.2679514E0,3.6215253E-2,-4.84344E-1,9.422884E-3,-7.131569E-1,-5.158215E-1,-7.762494E-2,4.0204395E-2,-4.9055436E-1,1.6206206E-1,-2.9019758E-2,-7.155209E-2,-1.2272868E-2,-2.892692E-2,-7.4794754E-2,-7.275319E-1,-5.480381E-2,1.257796E0,-8.530914E-1,-7.6338917E-1,-1.0235293E0,1.4544733E-2,1.3729466E0,4.6900803E-1,1.1886964E0,-7.126586E-2,-1.9726941E-2,-1.7220892E-3,1.07784174E-1,8.793806E-3,-8.97996E-1,-3.9323997E-2,4.6776947E-2,4.639969E-2,1.3567735E-1,1.2854326E-1,3.680045E-2,3.0207444E-2,-5.551562E-2,-7.328433E-2,-1.617506E-2,-6.985023E-2,2.0313598E-2,-5.1452134E-2,-8.8595105E-3,-6.720047E-2,4.134927E-3,-5.622257E-2,5.9826583E-2,3.1365813E-3,1.5014562E-1,-3.1146035E-2,-7.760334E-2,-6.1836284E-2,-1.1202205E-2,-3.1020833E-2,-8.048101E-2,1.184818E-1,9.401307E-2,5.902345E-2,-1.9819893E-2,5.1662635E-2,1.0318375E-1,-7.2936386E-2,-2.1259513E-2],"categories":[0,1,0,0,0,1,3,0,1,1,2,3,4,5,0,1,2,3,6],"categories_nodes":[1,2,10,17,25,36,42,45],"categories_segments":[0,2,3,4,7,9,14,15],"categories_sizes":[2,1,1,3,2,5,1,4],"default_left":[0,1,1,0,0,0,0,0,0,0,1,0,0,0,0,0,0,1,0,0,0,0,0,0,0,1,0,0,0,0,0,0,0,0,0,0,1,0,0,0,0,0,1,0,0,1,0,0,0,0,0,0,0,0,0,0,0,0,0,0,0,0,0,0,0,0,0,0,0,0,0,0,0,0,0,0,0,0,0,0,0,0,0,0,0,0,0,0,0,0,0,0,0,0,0,0,0,0,0,0,0,0,0,0,0,0,0,0,0,0,0,0,0,0,0,0,0,0,0,0,0,0,0,0,0,0,0],"id":10,"left_children":[1,3,5,7,9,11,13,15,17,19,21,23,25,27,29,31,33,35,37,39,41,43,45,47,-1,49,51,53,-1,55,57,-1,59,61,63,65,67,69,71,-1,73,-1,75,77,79,81,-1,-1,-1,83,85,-1,-1,-1,-1,87,89,91,93,-1,95,-1,97,-1,99,-1,101,103,-1,-1,105,-1,-1,-1,-1,-1,-1,107,109,111,113,115,117,-1,119,121,123,-1,-1,-1,-1,-1,125,-1,-1,-1,-1,-1,-1,-1,-1,-1,-1,-1,-1,-1,-1,-1,-1,-1,-1,-1,-1,-1,-1,-1,-1,-1,-1,-1,-1,-1,-1,-1,-1,-1,-1],"loss_changes":[3.4953748E2,7.448479E1,1.1046593E2,3.767896E1,1.3508209E1,4.8063766E1,2.176736E1,2.6891216E1,1.1219879E1,3.196167E0,1.4423599E1,4.9329476E0,2.5135986E1,4.1890783E0,7.722477E0,7.773945E0,1.1185743E1,2.0002136E0,2.1277777E1,7.867432E-2,4.272895E0,1.2723765E1,3.7436752E0,6.772871E-1,0E0,2.0542023E1,2.1460223E0,4.3476906E0,0E0,1.0228411E1,5.264984E0,0E0,1.9265709E0,6.012011E0,4.7256117E0,2.504931E0,1.3564243E0,5.0663652E0,1.631084E1,0E0,9.7811294E-1,0E0,4.7194338E-1,6.5856934E0,2.3988321E1,1.2053452E0,0E0,0E0,0E0,4.7947693E0,1.0653397E1,0E0,0E0,0E0,0E0,5.954828E-1,4.057006E0,3.3333282E0,3.278463E0,0E0,2.3383942E0,0E0,1.9271593E0,0E0,6.156719E0,0E0,9.333911E-1,4.01597E0,0E0,0E0,3.3190155E0,0E0,0E0,0E0,0E0,0E0,0E0,6.2301674E0,1.2640409E1,1.041428E1,2.755804E-1,1.357235E0,6.4888763E-1,0E0,1.8170776E0,1.364015E1,1.7900581E0,0E0,0E0,0E0,0E0,0E0,1.3693047E0,0E0,0E0,0E0,0E0,0E0,0E0,0E0,0E0,0E0,0E0,0E0,0E0,0E0,0E0,0E0,0E0,0E0,0E0,0E0,0E0,0E0,0E0,0E0,0E0,0E0,0E0,0E0,0E0,0E0,0E0,0E0,0E0,0E0,0E0],"parents":[2147483647,0,0,1,1,2,2,3,3,4,4,5,5,6,6,7,7,8,8,9,9,10,10,11,11,12,12,13,13,14,14,15,15,16,16,17,17,18,18,19,19,20,20,21,21,22,22,23,23,25,25,26,26,27,27,29,29,30,30,32,32,33,33,34,34,35,35,36,36,37,37,38,38,40,40,42,42,43,43,44,44,45,45,49,49,50,50,55,55,56,56,57,57,58,58,60,60,62,62,64,64,66,66,67,67,70,70,77,77,78,78,79,79,80,80,81,81,82,82,84,84,85,85,86,86,92,92],"right_children":[2,4,6,8,10,12,14,16,18,20,22,24,26,28,30,32,34,36,38,40,42,44,46,48,-1,50,52,54,-1,56,58,-1,60,62,64,66,68,70,72,-1,74,-1,76,78,80,82,-1,-1,-1,84,86,-1,-1,-1,-1,88,90,92,94,-1,96,-1,98,-1,100,-1,102,104,-1,-1,106,-1,-1,-1,-1,-1,-1,108,110,112,114,116,118,-1,120,122,124,-1,-1,-1,-1,-1,126,-1,-1,-1,-1,-1,-1,-1,-1,-1,-1,-1,-1,-1,-1,-1,-1,-1,-1,-1,-1,-1,-1,-1,-1,-1,-1,-1,-1,-1,-1,-1,-1,-1,-1],"split_conditions":[5.84E2,NaN,NaN,3.47E2,4.72E2,1.66E2,2.34E2,1.74E2,-3.4541965E-1,1.8721094E0,NaN,6.79E2,4.26E2,1.92E2,1.02622E5,7E1,1.32338E5,NaN,9.4E1,1.96631E5,1.48842E5,2.355501E-1,2.112394E0,1.39812E5,2.9657278E-2,NaN,1.8932227E0,1.47354E5,-1.6853306E-2,9.3E1,4.585787E-1,6.7115005E-4,3.1238468E-2,2.4E1,-5.4164875E-1,-1.9040093E0,NaN,1.64E2,1.8932227E0,-8.060161E-2,2.76E2,3.4141757E-2,NaN,9.1E1,1.77E2,NaN,-4.365454E-3,-7.693024E-2,-2.4468757E-2,2.1E1,7.15E2,3.6499633E-3,-7.3938936E-2,9.642385E-2,-3.44729E-4,8.6E1,-2.6303318E0,2.63E2,2.63E2,5.0371233E-2,4.75E2,-2.1351099E-2,3.18E2,3.6215253E-2,2.3E2,9.422884E-3,-1.0437485E0,-1.4147124E0,-7.762494E-2,4.0204395E-2,8.5E1,1.6206206E-1,-2.9019758E-2,-7.155209E-2,-1.2272868E-2,-2.892692E-2,-7.4794754E-2,1.48137E5,-6.01606E-1,7.6E1,8.1E1,5.75E2,1.58E2,1.4544733E-2,-4.6806675E-1,1.83E2,1.81E2,-7.126586E-2,-1.9726941E-2,-1.7220892E-3,1.07784174E-1,8.793806E-3,7.15E2,-3.9323997E-2,4.6776947E-2,4.639969E-2,1.3567735E-1,1.2854326E-1,3.680045E-2,3.0207444E-2,-5.551562E-2,-7.328433E-2,-1.617506E-2,-6.985023E-2,2.0313598E-2,-5.1452134E-2,-8.8595105E-3,-6.720047E-2,4.134927E-3,-5.622257E-2,5.9826583E-2,3.1365813E-3,1.5014562E-1,-3.1146035E-2,-7.760334E-2,-6.1836284E-2,-1.1202205E-2,-3.1020833E-2,-8.048101E-2,1.184818E-1,9.401307E-2,5.902345E-2,-1.9819893E-2,5.1662635E-2,1.0318375E-1,-7.2936386E-2,-2.1259513E-2],"split_indices":[8,34,34,10,8,1,10,1,13,4,34,8,10,1,3,2,3,33,2,3,3,4,4,3,0,34,13,3,0,2,4,0,4,16,4,13,19,1,13,0,8,0,34,2,1,19,0,0,0,16,8,0,0,0,0,2,13,10,10,0,8,0,10,0,10,0,13,13,0,0,2,0,0,0,0,0,0,3,13,2,2,8,1,0,13,1,1,0,0,0,0,0,8,0,0,0,0,0,0,0,0,0,0,0,0,0,0,0,0,0,0,0,0,0,0,0,0,0,0,0,0,0,0,0,0,0,0],"split_type":[0,1,1,0,0,0,0,0,0,0,1,0,0,0,0,0,0,1,0,0,0,0,0,0,0,1,0,0,0,0,0,0,0,0,0,0,1,0,0,0,0,0,1,0,0,1,0,0,0,0,0,0,0,0,0,0,0,0,0,0,0,0,0,0,0,0,0,0,0,0,0,0,0,0,0,0,0,0,0,0,0,0,0,0,0,0,0,0,0,0,0,0,0,0,0,0,0,0,0,0,0,0,0,0,0,0,0,0,0,0,0,0,0,0,0,0,0,0,0,0,0,0,0,0,0,0,0],"sum_hessian":[9.888656E2,6.29965E2,3.5890063E2,1.8743773E2,4.4252728E2,2.6760544E2,9.129518E1,7.111011E1,1.1632762E2,2.2577693E2,2.1675035E2,1.723499E1,2.5037045E2,1.6755846E1,7.453934E1,2.8144592E1,4.2965515E1,5.300315E1,6.3324467E1,2.1295323E2,1.28237E1,9.229909E1,1.24451256E2,1.4036122E1,3.1988673E0,2.4227596E2,8.094503E0,1.3063056E1,3.6927898E0,1.466356E1,5.9875774E1,4.463538E0,2.3681055E1,1.0609252E1,3.2356262E1,1.3715472E1,3.9287678E1,5.377367E1,9.550797E0,2.0549788E2,7.4553466E0,3.125387E0,9.698314E0,7.234247E1,1.9956621E1,1.1896318E2,5.4880805E0,1.1000871E1,3.0352523E0,1.496018E2,9.267415E1,3.0735917E0,5.020911E0,9.37066E0,3.692396E0,7.2944064E0,7.3691535E0,5.1442955E1,8.432819E0,4.715007E0,1.8966047E1,3.1295433E0,7.479709E0,5.4927707E0,2.6863493E1,5.4079084E0,8.307564E0,1.1225344E1,2.8062334E1,4.6355515E0,4.913812E1,5.649457E0,3.9013407E0,4.410275E0,3.0450714E0,4.106354E0,5.591959E0,5.2053043E1,2.0289423E1,1.1303824E1,8.652797E0,5.4198948E1,6.476423E1,3.862346E0,1.4573946E2,6.037915E1,3.2295E1,4.1367836E0,3.157623E0,3.1675112E0,4.201642E0,3.2524254E0,4.819053E1,4.530264E0,3.902556E0,3.4691608E0,1.5496887E1,4.181063E0,3.2986457E0,5.624554E0,2.123894E1,4.990113E0,3.317451E0,7.340901E0,3.8844428E0,3.2628014E1,1.6510105E1,4.3609203E1,8.443839E0,1.1261498E1,9.027925E0,4.5181794E0,6.7856445E0,3.2073238E0,5.445473E0,5.035976E1,3.8391864E0,3.3163269E0,6.1447903E1,6.250458E1,8.323488E1,4.2669346E1,1.7709805E1,8.799194E0,2.3495802E1,4.387586E1,4.3146706E0],"tree_param":{"num_deleted":"0","num_feature":"38","num_nodes":"127","size_leaf_vector":"1"}},{"base_weights":[-1.6085884E-1,4.8194605E-1,-5.928803E-1,7.677785E-1,-6.7710453E-1,-6.471993E-2,-8.1343335E-1,1.023983E0,-1.0612614E-1,-7.9899096E-1,5.8081335E-1,2.6935062E-1,-4.1178337E-1,1.12708986E-1,-8.653438E-1,1.2010572E0,5.434849E-1,7.3107517E-1,-4.0253156E-1,-3.1732193E-1,-9.191944E-1,-3.490683E-3,8.1762716E-2,9.7793204E-1,7.704805E-2,6.6636436E-2,-4.788771E-1,7.596815E-1,-6.973982E-2,-6.7090476E-1,-1.004249E0,1.3700714E0,8.991071E-1,1.2379595E0,2.2554712E-1,8.802122E-1,2.8421103E-3,4.8532036E-1,-5.9338415E-1,2.835862E-2,-5.8421665E-1,-9.70156E-1,-4.5199382E-1,1.29857E0,3.7197995E-1,2.2297497E-1,-5.638532E-1,-3.1346065E-1,-7.964051E-1,1.2137831E0,-1.1348214E-3,-4.9966455E-1,-9.436162E-1,-8.307419E-1,-7.97356E-2,1.3947884E0,5.24972E-2,3.2353508E-1,1.0483749E0,1.1639103E-1,8.251923E-1,8.919223E-1,3.5307225E-2,8.82035E-2,2.996852E-2,7.286312E-2,-2.4776466E-2,-1.6062094E-2,-7.165181E-1,-7.1011156E-2,1.9802863E-2,-3.3517543E-2,-9.9742025E-1,-9.325755E-3,-5.0122395E-2,1.19761944E-1,3.0599805E-2,7.0234425E-2,-2.633315E-2,1.2607914E0,-8.147623E-3,-7.4478936E-1,1.4449172E-3,7.795369E-2,-4.370364E-1,-8.756388E-1,-1.6061971E-2,-1.5472983E-3,1.546664E-1,5.1355213E-2,-5.599991E-1,-3.064814E-2,-9.893209E-1,-2.3294581E-1,-9.633696E-1,8.889236E-2,1.1304011E-1,9.946562E-2,-9.741905E-3,8.672063E-2,1.6727062E-2,-1.0670369E-2,9.6891046E-2,8.102341E-3,9.4334744E-2,4.511365E-2,-1.8717954E-2,-4.190769E-2,3.0807298E-2,-1.8640615E-2,-5.8910925E-2,-4.834799E-2,-8.00066E-2,1.2655336E-1,3.0882826E-2,-2.4590967E-2,2.1092102E-2,-7.506802E-2,-1.3353556E-2,-5.2069783E-2,-1.3025997E-2,-4.7655907E-2,-7.9404145E-2,-3.0230717E-3,-5.578999E-2,-7.7989265E-2,-4.0715646E-2,3.461913E-2,-5.010954E-2,-8.120032E-2,-4.02705E-2],"categories":[0,1,0,0,1,3,0,0,1,0,2,3,4,5,0,1,3,4,2,2,3,2,0,1,2,0,1,2,3,4,6],"categories_nodes":[2,3,9,14,15,38,44,45,51,53,62,72],"categories_segments":[0,2,3,6,7,9,14,18,19,21,22,25],"categories_sizes":[2,1,3,1,2,5,4,1,2,1,3,6],"default_left":[0,0,1,1,0,0,0,0,0,1,0,0,0,0,1,1,0,0,0,0,0,0,0,0,0,0,0,0,0,0,0,0,0,0,0,0,0,0,1,0,0,0,0,0,1,1,0,0,0,0,0,1,0,1,0,0,0,0,0,0,0,0,1,0,0,0,0,0,0,0,0,0,1,0,0,0,0,0,0,0,0,0,0,0,0,0,0,0,0,0,0,0,0,0,0,0,0,0,0,0,0,0,0,0,0,0,0,0,0,0,0,0,0,0,0,0,0,0,0,0,0,0,0,0,0,0,0,0,0,0,0],"id":11,"left_children":[1,3,5,7,9,11,13,15,17,19,21,23,25,27,29,31,33,35,37,39,41,-1,-1,43,45,-1,47,49,-1,51,53,55,57,59,61,63,-1,65,67,-1,69,71,73,75,77,79,81,83,85,87,-1,89,91,93,-1,95,-1,97,99,-1,101,103,105,-1,-1,-1,-1,107,109,-1,-1,-1,111,-1,-1,-1,-1,-1,-1,113,115,117,-1,-1,119,121,-1,-1,-1,-1,123,-1,125,127,129,-1,-1,-1,-1,-1,-1,-1,-1,-1,-1,-1,-1,-1,-1,-1,-1,-1,-1,-1,-1,-1,-1,-1,-1,-1,-1,-1,-1,-1,-1,-1,-1,-1,-1,-1,-1],"loss_changes":[2.673435E2,1.2875916E2,6.699429E1,6.9736435E1,1.2286228E1,1.9895119E1,1.9613525E1,1.981604E1,1.8014135E1,3.8026466E0,2.2974014E0,1.185442E1,7.6437416E0,1.5529192E1,9.711212E0,7.6972046E0,1.4428003E1,1.9365826E0,9.333402E0,3.0868626E0,8.9637756E-1,0E0,0E0,3.1313457E0,6.6675267E0,0E0,3.981001E0,5.041088E0,0E0,7.1515503E0,5.219116E-1,9.122772E-1,5.305195E0,1.1424351E0,5.915826E0,1.6165066E0,0E0,4.066697E0,3.1438513E0,0E0,3.6008558E0,2.8567505E-1,4.1302657E-1,2.1672459E0,3.3673794E0,1.3848275E1,1.4116416E0,9.422127E0,1.0691986E0,8.984251E0,0E0,7.601309E0,1.1413727E0,3.193262E0,0E0,2.7067566E-1,0E0,6.7380924E0,3.3142662E0,0E0,4.645632E0,2.6335602E0,5.947603E0,0E0,0E0,0E0,0E0,2.1771474E0,7.1307373E-1,0E0,0E0,0E0,1.3092422E-1,0E0,0E0,0E0,0E0,0E0,0E0,2.854187E0,4.3556027E0,1.186182E0,0E0,0E0,3.1627855E0,3.0895042E-1,0E0,0E0,0E0,0E0,8.525101E0,0E0,1.8492126E-1,2.9296305E0,9.124794E-1,0E0,0E0,0E0,0E0,0E0,0E0,0E0,0E0,0E0,0E0,0E0,0E0,0E0,0E0,0E0,0E0,0E0,0E0,0E0,0E0,0E0,0E0,0E0,0E0,0E0,0E0,0E0,0E0,0E0,0E0,0E0,0E0,0E0,0E0,0E0,0E0],"parents":[2147483647,0,0,1,1,2,2,3,3,4,4,5,5,6,6,7,7,8,8,9,9,10,10,11,11,12,12,13,13,14,14,15,15,16,16,17,17,18,18,19,19,20,20,23,23,24,24,26,26,27,27,29,29,30,30,31,31,32,32,33,33,34,34,35,35,37,37,38,38,40,40,41,41,42,42,43,43,44,44,45,45,46,46,47,47,48,48,49,49,51,51,52,52,53,53,55,55,57,57,58,58,60,60,61,61,62,62,67,67,68,68,72,72,79,79,80,80,81,81,84,84,85,85,90,90,92,92,93,93,94,94],"right_children":[2,4,6,8,10,12,14,16,18,20,22,24,26,28,30,32,34,36,38,40,42,-1,-1,44,46,-1,48,50,-1,52,54,56,58,60,62,64,-1,66,68,-1,70,72,74,76,78,80,82,84,86,88,-1,90,92,94,-1,96,-1,98,100,-1,102,104,106,-1,-1,-1,-1,108,110,-1,-1,-1,112,-1,-1,-1,-1,-1,-1,114,116,118,-1,-1,120,122,-1,-1,-1,-1,124,-1,126,128,130,-1,-1,-1,-1,-1,-1,-1,-1,-1,-1,-1,-1,-1,-1,-1,-1,-1,-1,-1,-1,-1,-1,-1,-1,-1,-1,-1,-1,-1,-1,-1,-1,-1,-1,-1,-1],"split_conditions":[3.28E2,1.2663263E0,NaN,NaN,1.9695882E0,3.9E2,-2.3263528E0,2.97E2,2.45E2,NaN,4.680093E-1,-1.8673583E0,-2.5919034E0,4.21E2,NaN,NaN,-1.5392245E0,6.0262746E-1,-1.6479369E0,1.9855962E0,1.1647773E0,-3.490683E-3,8.1762716E-2,-1.559669E0,9.2554814E-1,6.6636436E-2,4.55E2,-1.6008179E0,-6.973982E-2,4.16E2,3.56E2,4.9701233E0,-3.3749625E-2,-5.022047E-1,-8.8578594E-1,2.19E2,2.8421103E-3,3.01E2,NaN,2.835862E-2,3.6603153E0,-1.5529193E0,2.1059017E0,3.77E2,NaN,NaN,1.7733182E0,-4.7699175E0,-2.2978044E0,-1.0312653E0,-1.1348214E-3,NaN,-6.2958074E0,NaN,-7.97356E-2,6.044311E-1,5.24972E-2,-1.7438515E0,7.795838E-1,1.1639103E-1,4.6444866E-1,-1.1025507E0,NaN,8.82035E-2,2.996852E-2,7.286312E-2,-2.4776466E-2,-8.6618304E-2,-1.310641E0,-7.1011156E-2,1.9802863E-2,-3.3517543E-2,NaN,-9.325755E-3,-5.0122395E-2,1.19761944E-1,3.0599805E-2,7.0234425E-2,-2.633315E-2,-6.470033E-1,-9.9187696E-1,2.918414E0,1.4449172E-3,7.795369E-2,-6.951743E-1,-4.6160264E0,-1.6061971E-2,-1.5472983E-3,1.546664E-1,5.1355213E-2,-2.65328E0,-3.064814E-2,-1.3468204E0,2.7522928E-1,7.030712E-1,8.889236E-2,1.1304011E-1,9.946562E-2,-9.741905E-3,8.672063E-2,1.6727062E-2,-1.0670369E-2,9.6891046E-2,8.102341E-3,9.4334744E-2,4.511365E-2,-1.8717954E-2,-4.190769E-2,3.0807298E-2,-1.8640615E-2,-5.8910925E-2,-4.834799E-2,-8.00066E-2,1.2655336E-1,3.0882826E-2,-2.4590967E-2,2.1092102E-2,-7.506802E-2,-1.3353556E-2,-5.2069783E-2,-1.3025997E-2,-4.7655907E-2,-7.9404145E-2,-3.0230717E-3,-5.578999E-2,-7.7989265E-2,-4.0715646E-2,3.461913E-2,-5.010954E-2,-8.120032E-2,-4.02705E-2],"split_indices":[10,7,34,34,6,10,7,10,10,34,11,7,7,10,34,34,7,7,7,7,5,0,0,11,7,0,10,11,0,10,10,11,11,6,6,10,0,10,18,0,7,5,11,10,34,36,6,11,11,6,0,36,11,36,0,11,0,7,7,0,6,7,36,0,0,0,0,5,7,0,0,0,35,0,0,0,0,0,0,11,7,7,0,0,6,11,0,0,0,0,11,0,11,6,6,0,0,0,0,0,0,0,0,0,0,0,0,0,0,0,0,0,0,0,0,0,0,0,0,0,0,0,0,0,0,0,0,0,0,0,0],"split_type":[0,0,1,1,0,0,0,0,0,1,0,0,0,0,1,1,0,0,0,0,0,0,0,0,0,0,0,0,0,0,0,0,0,0,0,0,0,0,1,0,0,0,0,0,1,1,0,0,0,0,0,1,0,1,0,0,0,0,0,0,0,0,1,0,0,0,0,0,0,0,0,0,1,0,0,0,0,0,0,0,0,0,0,0,0,0,0,0,0,0,0,0,0,0,0,0,0,0,0,0,0,0,0,0,0,0,0,0,0,0,0,0,0,0,0,0,0,0,0,0,0,0,0,0,0,0,0,0,0,0,0],"sum_hessian":[9.606582E2,3.8608566E2,5.745726E2,3.0997946E2,7.610619E1,1.6963635E2,4.0493622E2,2.3957191E2,7.040754E1,6.971588E1,6.390318E0,8.655021E1,8.308614E1,2.1429945E1,3.8350626E2,1.7396306E2,6.5608864E1,1.8026098E1,5.238144E1,1.4650302E1,5.5065575E1,3.187305E0,3.2030132E0,1.760293E1,6.894727E1,3.5398433E0,7.95463E1,1.3282591E1,8.147354E0,1.6223712E2,2.2126915E2,1.0926527E2,6.469779E1,1.9695055E1,4.5913807E1,1.46167145E1,3.4093838E0,8.994738E0,4.3386703E1,3.9898946E0,1.0660407E1,4.8679188E1,6.3863893E0,1.0764106E1,6.8388233E0,5.6691315E1,1.2255964E1,5.360692E1,2.593938E1,8.015613E0,5.2669787E0,1.013991E2,6.083802E1,4.2106556E1,1.7916258E2,1.04461655E2,4.8036146E0,1.3975634E1,5.0722157E1,1.013275E1,9.562305E0,9.377556E0,3.653625E1,8.542752E0,6.0739627E0,5.598112E0,3.3966255E0,7.8257213E0,3.556098E1,7.5108147E0,3.1495924E0,3.1985364E0,4.548065E1,3.0303717E0,3.3560176E0,7.7530527E0,3.0110536E0,3.7248883E0,3.113935E0,9.514227E0,4.7177086E1,9.139789E0,3.116176E0,3.9416978E0,4.9665222E1,2.2420338E1,3.5190418E0,3.5466177E0,4.4689946E0,4.478425E0,9.692068E1,5.472602E0,5.5365417E1,8.146052E0,3.3960503E1,3.0421251E1,7.4040405E1,3.8260145E0,1.0149619E1,4.5785236E1,4.9369235E0,3.203782E0,6.3585234E0,3.2186337E0,6.158922E0,1.1891899E1,2.4644352E1,3.3123224E0,4.5133986E0,4.0819955E0,3.1478985E1,6.7383847E0,3.8742264E1,5.9045787E0,3.6096485E0,2.236396E1,2.4813126E1,5.9698834E0,3.1699047E0,2.5235775E1,2.4429447E1,1.0561447E1,1.1858891E1,2.3928E1,7.2992676E1,5.1017357E1,4.3480597E0,3.0729783E0,5.0730734E0,2.6695738E1,7.264766E0],"tree_param":{"num_deleted":"0","num_feature":"38","num_nodes":"131","size_leaf_vector":"1"}},{"base_weights":[-1.510217E-1,-6.754742E-1,2.7102408E-1,-8.557837E-1,-3.1712982E-1,-1.6161485E-2,1.1262778E0,-8.8985765E-1,4.7434068E-1,-3.627668E-1,9.359523E-2,9.818214E-1,-1.6974238E-1,-2.160719E-1,1.2211324E0,-9.6075654E-1,-6.985106E-1,-3.4302317E-2,9.444584E-2,-6.244749E-1,-1.8078944E-1,-2.3391306E-2,1.139041E0,-5.318498E-1,1.8583173E-1,3.0989528E-2,-6.2275473E-2,1.3909329E0,7.583579E-1,-5.9059656E-1,-9.706705E-1,-7.823066E-1,4.184017E-2,-7.625667E-1,1.7155996E-1,-3.2617304E-1,3.9141086E-1,1.258753E0,-1.4862113E-2,-1.4915045E-1,-6.753898E-1,-6.8529683E-1,4.2246202E-1,5.606738E-1,1.4770609E0,-2.4841689E-1,1.01817E0,-6.685561E-2,-9.550676E-3,-7.497783E-2,-4.255817E-2,-8.564604E-1,-4.39526E-1,-3.1770027E-1,-8.637907E-1,-3.378639E-2,4.4589236E-2,2.8900458E-2,-3.989058E-1,8.088188E-1,-2.8512064E-1,2.522386E-2,1.352694E0,-5.8995086E-1,6.565831E-1,-7.6410055E-1,-4.248312E-1,-2.2883354E-1,-9.8019606E-1,1.4940869E0,1.1367016E-1,8.416109E-2,-8.648162E-3,1.1548028E-1,4.3388803E-2,-4.8258346E-2,1.3744778E-2,5.370347E-1,1.2230141E0,-2.039122E-2,-6.835664E-2,-5.4919224E-2,1.0607245E-2,-5.447217E-2,2.7305234E-2,-7.381076E-2,-3.0411571E-2,-6.0091767E-2,-2.0197159E-2,8.609236E-2,1.9847983E-2,-4.9631093E-2,1.0995711E-2,1.1273021E-1,6.8377666E-2,-5.64752E-2,4.345293E-2,-1.5067862E-2,8.411868E-2,-6.162149E-2,-8.033219E-3,6.4902544E-2,-4.799845E-2,-4.8767477E-2,8.45198E-2,-8.163854E-2,-4.4863537E-2,1.7037651E-1,8.393074E-2,-3.0729324E-2,6.5607615E-2,6.3357465E-3,6.022568E-2,1.064893E-1,3.13235E-2],"categories":[3,5,0,0,2,0,1,2,3],"categories_nodes":[36,43,59,77],"categories_segments":[0,2,3,5],"categories_sizes":[2,1,2,4],"default_left":[0,0,0,0,0,0,0,0,0,0,0,0,0,0,0,0,0,0,0,0,0,0,0,0,0,0,0,0,0,0,0,0,0,0,0,0,1,0,0,0,0,0,0,1,0,0,0,0,0,0,0,0,0,0,0,0,0,0,0,1,0,0,0,0,0,0,0,0,0,0,0,0,0,0,0,0,0,1,0,0,0,0,0,0,0,0,0,0,0,0,0,0,0,0,0,0,0,0,0,0,0,0,0,0,0,0,0,0,0,0,0,0,0,0,0],"id":12,"left_children":[1,3,5,7,9,11,13,15,17,19,-1,21,23,25,27,29,31,-1,-1,33,35,-1,37,39,41,-1,-1,43,45,47,49,51,-1,53,55,57,59,61,-1,63,65,67,69,71,73,75,77,-1,-1,-1,-1,79,81,83,85,-1,-1,-1,87,89,91,-1,93,95,97,99,101,103,105,107,109,-1,-1,-1,-1,-1,-1,111,113,-1,-1,-1,-1,-1,-1,-1,-1,-1,-1,-1,-1,-1,-1,-1,-1,-1,-1,-1,-1,-1,-1,-1,-1,-1,-1,-1,-1,-1,-1,-1,-1,-1,-1,-1,-1],"loss_changes":[2.0757382E2,2.6742065E1,1.27710335E2,1.3001083E1,1.03782215E1,5.997026E1,1.6905914E1,3.0048218E0,5.849313E0,6.4703045E0,0E0,1.0906525E1,4.3746742E1,3.8339388E0,8.549637E0,1.4248657E-1,8.447285E0,0E0,0E0,6.318289E0,7.027541E0,0E0,7.698242E0,9.139729E0,3.569998E1,0E0,0E0,5.48024E0,9.409983E0,8.9397216E-1,4.019165E-2,1.4657936E0,0E0,1.8938313E0,2.551035E0,3.5609493E0,5.104329E0,3.3102646E0,0E0,1.7139385E1,2.3881721E0,4.7665424E0,4.473665E1,3.7071629E0,1.2741547E0,1.4145955E0,2.1050644E0,0E0,0E0,0E0,0E0,9.822197E-1,2.4907472E0,3.0352607E0,1.4067135E0,0E0,0E0,0E0,2.9698257E0,1.5989356E0,1.2303042E0,0E0,7.9226685E-1,5.6843023E0,6.6659527E0,2.2469711E0,9.27621E0,9.301598E0,1.209774E-1,6.370743E0,4.0989964E1,0E0,0E0,0E0,0E0,0E0,0E0,1.0818787E0,1.9864941E0,0E0,0E0,0E0,0E0,0E0,0E0,0E0,0E0,0E0,0E0,0E0,0E0,0E0,0E0,0E0,0E0,0E0,0E0,0E0,0E0,0E0,0E0,0E0,0E0,0E0,0E0,0E0,0E0,0E0,0E0,0E0,0E0,0E0,0E0,0E0,0E0],"parents":[2147483647,0,0,1,1,2,2,3,3,4,4,5,5,6,6,7,7,8,8,9,9,11,11,12,12,13,13,14,14,15,15,16,16,19,19,20,20,22,22,23,23,24,24,27,27,28,28,29,29,30,30,31,31,33,33,34,34,35,35,36,36,37,37,39,39,40,40,41,41,42,42,43,43,44,44,45,45,46,46,51,51,52,52,53,53,54,54,58,58,59,59,60,60,62,62,63,63,64,64,65,65,66,66,67,67,68,68,69,69,70,70,77,77,78,78],"right_children":[2,4,6,8,10,12,14,16,18,20,-1,22,24,26,28,30,32,-1,-1,34,36,-1,38,40,42,-1,-1,44,46,48,50,52,-1,54,56,58,60,62,-1,64,66,68,70,72,74,76,78,-1,-1,-1,-1,80,82,84,86,-1,-1,-1,88,90,92,-1,94,96,98,100,102,104,106,108,110,-1,-1,-1,-1,-1,-1,112,114,-1,-1,-1,-1,-1,-1,-1,-1,-1,-1,-1,-1,-1,-1,-1,-1,-1,-1,-1,-1,-1,-1,-1,-1,-1,-1,-1,-1,-1,-1,-1,-1,-1,-1,-1,-1],"split_conditions":[3.27E2,5.4E1,2.355501E-1,2.882332E0,7.1E1,-2.555061E0,5.3E1,-2.3264114E-2,-2.7374175E-1,2.71E2,9.359523E-2,4.2E2,-1.0122569E0,5.2845377E-1,1.7694988E0,-1.9953661E0,2.0696142E0,-3.4302317E-2,9.444584E-2,2.763616E0,1.2800974E0,-2.3391306E-2,6.9E1,-1.4385978E0,5.8E1,3.0989528E-2,-6.2275473E-2,4.2661586E-1,1.193382E0,-2.3397412E0,3.9005113E0,2.78E2,4.184017E-2,-9.198989E-1,-1.6459732E0,-1.4388967E0,NaN,-4.5593333E0,-1.4862113E-2,-2.3041022E0,-1.3944024E0,1.5235282E0,-1.6459732E0,NaN,1.6329318E0,-1.3369554E-1,3.54E2,-6.685561E-2,-9.550676E-3,-7.497783E-2,-4.255817E-2,5.8680497E-2,5.2E1,-1.201125E0,1.7973114E0,-3.378639E-2,4.4589236E-2,2.8900458E-2,-6.5572995E-1,NaN,2.99E2,2.522386E-2,-3.0303943E0,-1.334223E0,4.4E2,-7.1495295E-1,-2.1605537E0,3.95E2,1.7694988E0,-2.5896454E0,3.097942E-1,8.416109E-2,-8.648162E-3,1.1548028E-1,4.3388803E-2,-4.8258346E-2,1.3744778E-2,NaN,6.8E1,-2.039122E-2,-6.835664E-2,-5.4919224E-2,1.0607245E-2,-5.447217E-2,2.7305234E-2,-7.381076E-2,-3.0411571E-2,-6.0091767E-2,-2.0197159E-2,8.609236E-2,1.9847983E-2,-4.9631093E-2,1.0995711E-2,1.1273021E-1,6.8377666E-2,-5.64752E-2,4.345293E-2,-1.5067862E-2,8.411868E-2,-6.162149E-2,-8.033219E-3,6.4902544E-2,-4.799845E-2,-4.8767477E-2,8.45198E-2,-8.163854E-2,-4.4863537E-2,1.7037651E-1,8.393074E-2,-3.0729324E-2,6.5607615E-2,6.3357465E-3,6.022568E-2,1.064893E-1,3.13235E-2],"split_indices":[9,0,12,12,0,15,0,12,6,9,0,9,6,6,15,6,6,0,0,6,12,0,0,15,0,0,0,12,6,6,15,9,0,12,12,5,35,6,0,6,6,6,12,17,5,5,9,0,0,0,0,12,0,12,6,0,0,0,6,30,9,0,15,12,9,12,12,9,15,12,6,0,0,0,0,0,0,35,0,0,0,0,0,0,0,0,0,0,0,0,0,0,0,0,0,0,0,0,0,0,0,0,0,0,0,0,0,0,0,0,0,0,0,0,0],"split_type":[0,0,0,0,0,0,0,0,0,0,0,0,0,0,0,0,0,0,0,0,0,0,0,0,0,0,0,0,0,0,0,0,0,0,0,0,1,0,0,0,0,0,0,1,0,0,0,0,0,0,0,0,0,0,0,0,0,0,0,1,0,0,0,0,0,0,0,0,0,0,0,0,0,0,0,0,0,1,0,0,0,0,0,0,0,0,0,0,0,0,0,0,0,0,0,0,0,0,0,0,0,0,0,0,0,0,0,0,0,0,0,0,0,0,0],"sum_hessian":[9.3596564E2,4.1708148E2,5.1888416E2,2.765438E2,1.4053769E2,3.891819E2,1.2970226E2,2.6995923E2,6.5845814E0,1.3723015E2,3.307542E0,5.1184883E1,3.37997E2,8.475933E0,1.2122632E2,1.9404108E2,7.5918144E1,3.1553876E0,3.4291937E0,5.528755E1,8.19426E1,5.4697266E0,4.5715157E1,1.6721442E2,1.7078258E2,4.3122187E0,4.1637144E0,8.721858E1,3.400774E1,6.641413E0,1.8739966E2,7.1476105E1,4.4420357E0,4.7150227E1,8.137324E0,6.5683754E1,1.6258842E1,4.1998825E1,3.7163317E0,4.6166542E1,1.2104788E2,3.607614E1,1.3470644E2,8.903184E0,7.831539E1,6.9849277E0,2.7022812E1,3.5966678E0,3.0447454E0,1.8276776E2,4.6319003E0,5.75317E1,1.3944406E1,9.506959E0,3.764327E1,3.2341144E0,4.9032097E0,5.7648177E0,5.9918934E1,9.934125E0,6.324717E0,4.2675433E0,3.773128E1,3.0014196E1,1.6152348E1,8.7883125E1,3.3164757E1,1.48564205E1,2.1219719E1,2.9274462E1,1.0543198E2,4.6019797E0,4.3012047E0,7.523116E1,3.0842357E0,3.444096E0,3.5408316E0,9.150921E0,1.7871891E1,3.725685E0,5.3806015E1,9.265021E0,4.679384E0,5.971109E0,3.5358498E0,3.0178087E1,7.4651814E0,1.43453865E1,4.5573547E1,5.657875E0,4.27625E0,3.1503828E0,3.174334E0,2.8295712E1,9.435568E0,2.6956636E1,3.05756E0,5.691113E0,1.0461235E1,8.267535E1,5.2077746E0,4.0953035E0,2.9069454E1,1.177573E1,3.0806909E0,1.6071405E1,5.1483135E0,8.745047E0,2.0529413E1,6.2537144E1,4.2894833E1,3.707658E0,5.443262E0,1.4256718E1,3.615173E0],"tree_param":{"num_deleted":"0","num_feature":"38","num_nodes":"115","size_leaf_vector":"1"}},{"base_weights":[-1.4844193E-1,-5.927282E-1,4.8533833E-1,-8.134868E-1,-2.829913E-1,-2.7098048E-1,6.576912E-1,-6.8470687E-1,-9.655051E-1,-6.840676E-1,4.9241775E-1,-8.4653926E-1,5.5208856E-1,4.38638E-1,1.1037719E0,-8.319318E-1,-4.0074456E-1,-7.474999E-2,-3.0500041E-2,-8.2063544E-1,1.0748088E0,8.329663E-2,1.8035871E0,-9.055451E-1,-8.054035E-3,1.0533493E0,-5.773342E-1,1.0210165E0,1.2580875E-1,1.1691725E0,-2.9569745E-2,-8.936134E-1,-2.2483128E-1,-5.237141E-1,1.0595743E-1,3.5074625E-2,-8.709381E-1,1.0655E-1,2.1411892E-2,-1.365938E-1,9.58269E-1,1.5407385E-1,7.256146E-2,-6.0450333E-1,-9.8912936E-1,6.442693E-1,1.2233241E-1,-7.449146E-2,1.6273757E-2,1.180447E0,-6.511534E-2,-2.6269928E-2,8.9968497E-1,1.3235108E0,9.504817E-1,-6.493094E-1,-9.6406084E-1,-6.3155375E-2,3.4269962E-2,-2.3252477E-1,-8.1679803E-1,-6.808089E-1,-7.6275215E-2,6.2565826E-2,-6.709272E-2,1.2914785E0,2.2208667E-3,-7.586615E-2,2.2246907E-2,-1.4958541E-2,-8.318868E-2,9.5140153E-1,-1.0263085E-2,5.6853336E-1,1.0797214E-1,-7.841432E-1,1.36771E-1,1.0702755E0,-1.0846989E-2,8.168361E-1,1.0632045E-1,9.908319E-2,7.6950884E-1,2.7655182E-2,-6.1834387E-2,-5.565064E-2,-7.8353696E-2,-3.533372E-2,2.663681E-2,-6.7544796E-2,-1.8164752E-2,-3.3417065E-2,-6.8166696E-2,1.5379517E-1,-1.3893924E-2,4.6820488E-2,1.2615293E-1,1.0468538E-2,1.0054311E-1,-5.4981757E-2,8.7439805E-2,-6.946922E-2,-9.453078E-3,6.1252642E-2,-6.0305884E-3,9.690017E-2,2.8620029E-2,3.2453764E-2,8.38177E-2,3.840583E-2,9.0626255E-2],"categories":[1,6,7,8,10,12,13,14,16,20,22,23,0,2,3,5,6,9,11,15,17,20,23,24,25,0,0,2,3,9,15,24,25,0,3,7,8,9,10,11,13,14,16,18,20,21,22,24,25,0,4,5,9,11,15,17,18,19,21,25,1,3,1,0,1,2],"categories_nodes":[3,29,31,33,36,56,61,77,79],"categories_segments":[0,12,25,26,33,49,60,62,63],"categories_sizes":[12,13,1,7,16,11,2,1,3],"default_left":[0,0,0,1,0,0,0,0,0,0,0,0,0,0,0,0,0,0,0,0,0,0,0,0,0,0,0,0,0,1,0,1,0,1,0,0,1,0,0,0,0,0,0,0,0,0,0,0,0,0,0,0,0,0,0,0,1,0,0,0,0,1,0,0,0,0,0,0,0,0,0,0,0,0,0,0,0,1,0,1,0,0,0,0,0,0,0,0,0,0,0,0,0,0,0,0,0,0,0,0,0,0,0,0,0,0,0,0,0,0,0],"id":13,"left_children":[1,3,5,7,9,11,13,15,17,19,21,23,25,27,29,31,33,-1,-1,35,37,39,41,43,-1,45,47,49,51,53,-1,55,57,59,-1,-1,61,-1,-1,63,65,-1,-1,67,69,71,-1,-1,-1,73,-1,75,77,79,81,83,85,-1,-1,87,89,91,-1,93,-1,95,-1,-1,-1,-1,-1,97,-1,99,-1,101,103,105,-1,107,-1,-1,109,-1,-1,-1,-1,-1,-1,-1,-1,-1,-1,-1,-1,-1,-1,-1,-1,-1,-1,-1,-1,-1,-1,-1,-1,-1,-1,-1,-1],"loss_changes":[2.5544923E2,3.622708E1,4.893032E1,5.422821E0,6.981666E1,3.3684395E1,2.9307297E1,6.844055E0,3.7886047E-1,3.6352074E1,4.101731E1,1.7274628E0,1.7286678E1,3.742553E1,1.0168098E1,3.9981613E0,1.3999652E1,0E0,0E0,9.2453E0,2.3878374E0,1.1586476E1,1.3168259E0,3.6972237E-1,0E0,3.5789661E0,3.2280962E0,2.244165E1,1.5939958E1,1.9755249E0,0E0,1.1201477E0,5.068939E0,4.706006E0,0E0,0E0,2.4544907E0,0E0,0E0,7.183529E0,3.7040548E0,0E0,0E0,4.053876E0,1.965107E0,3.3566737E0,0E0,0E0,0E0,8.50399E0,0E0,1.4193492E1,4.10166E0,5.918274E-1,1.6790161E0,4.3869286E0,3.186264E-1,0E0,0E0,4.157958E0,8.432312E-1,2.4497623E0,0E0,1.8894505E1,0E0,1.1338444E0,0E0,0E0,0E0,0E0,0E0,2.7008104E0,0E0,1.5369211E1,0E0,1.5289087E0,1.3570818E1,2.1251698E0,0E0,4.5159674E-1,0E0,0E0,2.8114853E0,0E0,0E0,0E0,0E0,0E0,0E0,0E0,0E0,0E0,0E0,0E0,0E0,0E0,0E0,0E0,0E0,0E0,0E0,0E0,0E0,0E0,0E0,0E0,0E0,0E0,0E0,0E0,0E0],"parents":[2147483647,0,0,1,1,2,2,3,3,4,4,5,5,6,6,7,7,8,8,9,9,10,10,11,11,12,12,13,13,14,14,15,15,16,16,19,19,20,20,21,21,22,22,23,23,25,25,26,26,27,27,28,28,29,29,31,31,32,32,33,33,36,36,39,39,40,40,43,43,44,44,45,45,49,49,51,51,52,52,53,53,54,54,55,55,56,56,59,59,60,60,61,61,63,63,65,65,71,71,73,73,75,75,76,76,77,77,79,79,82,82],"right_children":[2,4,6,8,10,12,14,16,18,20,22,24,26,28,30,32,34,-1,-1,36,38,40,42,44,-1,46,48,50,52,54,-1,56,58,60,-1,-1,62,-1,-1,64,66,-1,-1,68,70,72,-1,-1,-1,74,-1,76,78,80,82,84,86,-1,-1,88,90,92,-1,94,-1,96,-1,-1,-1,-1,-1,98,-1,